{
  "layers": [
    24,
    16,
    16,
    1
  ],
  "weights": [
    [
      [
        1.0236028644425503,
        -2.367826305000825,
        1.1643038545235536,
        0.08631961825855293,
        0.663203165729517,
        0.6677124461900563,
        0.2858966284025135,
        -0.027059697450093543,
        0.2539684017956339,
        -0.061947586472228686,
        0.32277908156373913,
        -0.08222547199801432,
        1.717755980954524,
        -2.2808160497164143,
        0.8823911432093313,
        0.3062234012676068,
        0.6085488894948466,
        0.6614187403024554,
        0.11723277850206812,
        0.2638922451005617,
        0.5084211394667645,
        0.2586913152252759,
        0.1937583520941224,
        0.3430555387445983
      ],
      [
        0.022275166029247347,
        -0.020978320179630357,
        0.21411113971854065,
        -0.08722033145971224,
        0.690241487548692,
        -0.7204323549806975,
        0.1156697794039608,
        -0.03485503676923428,
        0.04328033369952263,
        0.1128781399157709,
        0.023232546765625105,
        0.3031391958174501,
        0.6977903353642896,
        -0.5394449977988025,
        0.061608470971667696,
        -0.09329283738133909,
        0.09781537009567161,
        -1.0587257765124924,
        0.2599752220338853,
        0.08514675107349191,
        0.19522422936612813,
        0.14628591782023664,
        0.10861580554635133,
        0.24740440588607934
      ],
      [
        1.1873371229233427,
        -1.6733435934316294,
        0.8902745788829423,
        0.9642372216300975,
        0.34255018561359046,
        0.6436366842013183,
        0.48321939319565754,
        0.08480432111239854,
        0.4607271991254853,
        -0.058682441292291665,
        0.358309595128827,
        0.3511591550264972,
        1.8131539879199294,
        -1.6798815289790483,
        0.6725728901823609,
        0.8994398121908239,
        0.4281046984767664,
        0.20642755216533556,
        -0.031366430331258306,
        0.1214008118408108,
        1.079532231316947,
        0.25852692874995803,
        0.25409670390027683,
        0.3299983384209181
      ],
      [
        0.9372883045839059,
        -1.071080217896866,
        0.48748991353679744,
        0.2910937374521893,
        -1.3966716864956747,
        -0.0403999011821527,
        0.38258090260612376,
        0.014986377994119976,
        0.8025230428006054,
        0.09797484111340535,
        0.7610808426953147,
        -0.2566962380545558,
        -0.4906384224485549,
        -1.1157559019837404,
        -0.06638415713823989,
        -0.4267619481519295,
        1.1959736359753008,
        -0.026140902157163963,
        -0.025436444074135506,
        0.5175166695871465,
        0.3411937026563864,
        -0.36096182712540065,
        0.39380881316463523,
        0.8592970874260665
      ],
      [
        0.7080213446875337,
        -0.40050073064905894,
        -0.27891085563758927,
        -3.4979974259115503,
        3.1069397430748684,
        1.535288310910212,
        -0.14305826978388456,
        0.23906096676900368,
        -0.3590827208672486,
        -0.07901664916975402,
        0.1960528152031059,
        -0.22176716076974712,
        -0.6671930077484935,
        -1.2131003614172315,
        1.2337999704143674,
        2.7267700707045215,
        -0.7439761361289094,
        -0.9532505063858419,
        0.1439297983114702,
        -0.5219255893752921,
        0.33248588257563555,
        1.7633045988354297,
        -0.6986488019621802,
        -2.0757263660634604
      ],
      [
        -0.6102097636823999,
        0.2628610256212723,
        -0.6530867718895264,
        0.5527861170854308,
        0.6594957897287728,
        0.518428281272536,
        -0.49743839726827166,
        -0.156377332361193,
        -0.5124627527403693,
        0.01591436958017277,
        -0.8573804228501888,
        0.31128493282436376,
        -0.1907169607029876,
        0.40148184342797205,
        0.44216545040178956,
        0.3234459352803487,
        -0.23845188888783295,
        0.07767236280085968,
        0.160206290757729,
        -0.1207669457548741,
        -0.07648523454790317,
        -0.07092424336335078,
        -0.4967343307669995,
        -0.8920402197139029
      ],
      [
        -0.15891607896786278,
        -0.6397214555735733,
        0.33294228573416834,
        -0.03284719919025767,
        0.616448291704801,
        -0.004619096326652386,
        0.28661379311236024,
        0.21261073586216236,
        0.29545814360105066,
        0.07357418151948913,
        0.05943736235692484,
        0.3221340263457274,
        0.43869741742372387,
        -0.26766197155064003,
        0.0037670574751721055,
        -0.1850007357214082,
        -0.26032084088882074,
        0.0739087157507064,
        0.272560724315802,
        0.02378451641325349,
        0.3865342095669356,
        0.48392726515697165,
        0.24093074981886892,
        0.10511485728066812
      ],
      [
        0.10306136553463549,
        0.2071174487191742,
        1.960761104585595,
        -0.46284252495434197,
        0.7234713127578731,
        -2.041182962203975,
        0.05437866936135386,
        0.3235746837374584,
        0.11046778962430578,
        -0.02979327055072101,
        0.20912081692038872,
        0.1355501201630034,
        0.4117315642723371,
        0.5122752766437717,
        1.883515170264301,
        -0.9198285789124496,
        0.723291549935107,
        -1.5612026815100353,
        0.1863640842061653,
        0.7477406019457584,
        0.6264271911324435,
        -0.2314333397125774,
        0.26116782626217844,
        0.6409969710037257
      ],
      [
        0.9109791721199877,
        -2.24794855060877,
        1.0033944744621495,
        0.6763540592662088,
        0.6196874879163026,
        0.5705175515713969,
        0.12018190197217327,
        -0.19816355859908683,
        0.23198540437448578,
        -0.046745177551276135,
        0.6454351309532298,
        -0.18409715945439575,
        1.4547682050949926,
        -2.4857420045542833,
        0.6593812271544454,
        0.5825895405207032,
        0.43825302346908573,
        0.6622027874023029,
        0.26133682657541335,
        0.3226764714745612,
        0.6146799219035844,
        0.1626252721255793,
        0.2221058467163392,
        0.18259698755795628
      ],
      [
        -0.06606928607381843,
        -0.08937506518498574,
        0.049258591561589224,
        0.22232323781680938,
        0.47117578719401026,
        -0.15743876980178226,
        0.08042928928976195,
        0.44282983384015245,
        0.1191980201176228,
        0.09919279379485589,
        0.11709118004554527,
        0.14402254681023197,
        0.31280136554482546,
        -0.09192579763255514,
        0.05732248822263631,
        -0.12143062971070957,
        0.3048638772857689,
        -0.27696856546926163,
        0.2996089479522459,
        0.2626703913675451,
        0.12068477501579893,
        0.4441384890755777,
        0.383911829708622,
        0.11583979960837747
      ],
      [
        0.7976321011152185,
        -0.4115748502198055,
        -0.02576440422964944,
        -0.3574283335112149,
        0.39029367193524406,
        -0.1732568958128608,
        0.15440372673928027,
        0.09892067656441027,
        0.315180449601165,
        -0.19026255285718568,
        0.40307674597849047,
        -0.21242769998223074,
        -0.3274854468578837,
        0.17315369105235057,
        0.10222099089986127,
        0.1594354378013831,
        -0.013821641593355532,
        -0.14601988570886767,
        -0.047745120187472685,
        0.030268724059508107,
        0.5984332423417978,
        0.4451110272050989,
        -0.03709766672250844,
        0.1737761791238867
      ],
      [
        -0.42545008643010584,
        -1.1633415915263308,
        -1.3578481415366332,
        0.9766647754676759,
        3.084471883243849,
        -2.124174004659447,
        -0.5004654214581254,
        0.4340276199969204,
        -0.4927481591158246,
        -0.02070001511677833,
        -0.059844059422320024,
        -0.2605836571737495,
        -0.8680738555523719,
        -0.8191809085885846,
        -1.0235870576776562,
        1.8757587599484962,
        1.2994710798090916,
        -1.5145301983965909,
        0.01993123292128701,
        0.602168509055995,
        -0.5142041575516721,
        -1.2346623054605534,
        -0.34772027869835054,
        -1.2030437971088308
      ],
      [
        0.725915410270686,
        -0.29755565000753864,
        -1.3921711161388428,
        0.31062130221574347,
        0.9212726414233336,
        0.7990205202729398,
        0.2542817933022044,
        0.30699557318399623,
        0.13651010650822212,
        0.21415181921269807,
        0.011589314592786414,
        0.467627147984624,
        0.01816876819924103,
        0.17624426203252805,
        -1.3992949902246083,
        0.2828295389637413,
        0.2921580448392205,
        0.9251425907404476,
        -0.07632678786662465,
        0.09300934844850757,
        0.7271031919952697,
        0.011889400898611166,
        0.17600036556525073,
        0.6971074704433621
      ],
      [
        3.5254580013327512,
        -1.2566531688283535,
        -0.7350159316702727,
        -0.5703333732093068,
        -1.8930991088442068,
        -1.7876154542650617,
        -0.31139182309441776,
        0.11312103618923645,
        -0.367060949608378,
        -0.029411819868925153,
        -0.10141112462715904,
        -0.3798236929554865,
        2.845558402138055,
        -1.5742020631383704,
        -1.0454565250000596,
        -1.0779358253196125,
        -0.952602777817602,
        -0.8857730201025721,
        -0.31442885644046253,
        -0.3645427616736484,
        -0.4200655468737946,
        -0.41451378796646315,
        -0.2991766437925057,
        -0.5189836506568533
      ],
      [
        0.4048943955263844,
        0.5234102891250363,
        -1.5387305410624925,
        0.3122797371305223,
        0.4102835529020021,
        0.7591270420961708,
        -0.08455859258082554,
        -0.35870971558551923,
        0.004259844499908833,
        -0.020307053696756897,
        0.3932687802287128,
        -0.3845065727881235,
        1.406425002675072,
        0.605371886385981,
        -0.024002762637554423,
        -0.33248179713525355,
        -0.15313376107802393,
        -1.7890859122216773,
        0.1833514861935211,
        0.5978207532212282,
        -0.08139297147607373,
        -0.01023053821333407,
        0.062389506653718105,
        -0.19350396200918343
      ],
      [
        -1.7308416020257265,
        -0.6044945645962917,
        1.700371157459242,
        4.569502804836752,
        -2.6069550768992564,
        -0.03395497985630636,
        0.1633739193101439,
        -0.4923063956701294,
        0.32985547891481615,
        0.1503674358633828,
        -0.4480479758654046,
        0.7080843039395034,
        -1.3927380795927484,
        -0.6827129695190451,
        0.07052505845628455,
        -1.5412139422489666,
        2.6158108800078383,
        1.19033848697576,
        -0.19736577155548957,
        0.8046869683888395,
        -0.10349866184857513,
        -1.9474353774585975,
        0.7405404190258635,
        2.2988543540394346
      ]
    ],
    [
      [
        0.24611615244573937,
        0.26002871970487573,
        0.404725391860542,
        0.15902892417030015,
        0.20909689925077013,
        0.39002130148962694,
        0.1394786695468554,
        -0.062343797859399364,
        0.03707165030872246,
        0.28272659246312676,
        0.04771586291403947,
        0.2657845308889686,
        -0.23832334174847145,
        0.19949715288436343,
        0.1396894686989089,
        0.33537830256762025
      ],
      [
        0.36299875493991896,
        -0.13395328701562026,
        0.051325731204670266,
        -0.3152357112025974,
        0.31181398867389026,
        0.4015554874908755,
        0.18793738056416562,
        -0.01409279960325751,
        0.09289979036718624,
        0.30629890859257236,
        0.03455815653819337,
        -0.03686342487294444,
        -0.08475026748460711,
        0.30181788671042614,
        0.21780170336411236,
        0.47265520429842395
      ],
      [
        -0.0034799368626749956,
        0.2094452755349001,
        0.11881481189690689,
        -0.4172557016597489,
        0.2670784100353308,
        0.08854378071357477,
        0.2567731486362818,
        -0.45110980459262917,
        0.01631143454837549,
        -0.0739762019359526,
        -0.023393974503445228,
        0.18675587305128644,
        -0.4123296462620729,
        0.5571678547683527,
        0.009404695589678722,
        0.6458537561087412
      ],
      [
        0.6288380676080385,
        0.08385865836422852,
        0.47154501924127257,
        -0.12968884275415526,
        0.1867542337743513,
        0.012024012641972809,
        0.055017559003414485,
        -0.08571344393547589,
        0.45040540597155165,
        0.22344961278569161,
        -0.1397531158318226,
        -0.06013570259810099,
        0.246265065253276,
        -0.22068883365427056,
        0.0462007073992331,
        0.11007464523298977
      ],
      [
        1.5100319279847105,
        -0.7820288300838633,
        1.588626751015107,
        -0.3637121573191641,
        0.7477310892094984,
        0.453131861405403,
        -0.012045785247888597,
        -0.28224005567016547,
        1.6095157135283586,
        -0.5683153442417507,
        -0.5885610511804575,
        0.556512998775747,
        -0.21671556419646568,
        -2.1419912675871386,
        -1.0557443615113313,
        0.5616937768699714
      ],
      [
        -1.3177621953897052,
        0.6224870703012718,
        -1.1196074017501532,
        0.31547877396123136,
        0.09202997348984042,
        -0.5074343215266687,
        0.12567420429868448,
        -0.1675511944829751,
        -1.1302093428746767,
        0.28386856614887845,
        0.2413838495935973,
        -0.13384312930236136,
        0.17184131585345996,
        2.1840346075800876,
        0.47735237450064055,
        0.1241592174761767
      ],
      [
        1.042461186740389,
        -0.1454216171627199,
        1.0567550594533506,
        -0.1547411406388154,
        0.17071549647315884,
        0.24510952422961235,
        -0.09751450449167925,
        -0.17330808575422726,
        1.0983831222746085,
        -0.420093988350165,
        -0.07444854862622,
        0.5540646453706516,
        -0.23316217146524268,
        -0.7466783786937984,
        -0.45959631477430785,
        0.5312592692535981
      ],
      [
        -0.6778255574302781,
        0.26092908162705625,
        -0.9657149654902829,
        1.2942372686043149,
        3.5144080466420506,
        -1.1351852790511312,
        0.0003179034228462326,
        -2.5283237951182747,
        -0.8033705105532432,
        -0.6435468914064997,
        0.04709947528485482,
        2.6068762067552673,
        -2.0476040687165935,
        0.8404986563058547,
        -1.5709344265537413,
        4.119869974849599
      ],
      [
        1.2622247198576588,
        -0.3491497984496143,
        1.0840605316151604,
        0.07482628177497633,
        0.45706743510108366,
        0.46195795986905125,
        -0.2175859678661471,
        -0.34858738582244125,
        1.2349064943401433,
        -0.30376739097261796,
        -0.581044677552448,
        0.7973498643665147,
        -0.4283446586960636,
        -1.5958247973887612,
        -0.702071399064891,
        0.7100518889449762
      ],
      [
        0.17760362766492624,
        0.2715635417399757,
        0.368641450105209,
        0.1759748007771488,
        0.24087029424227305,
        0.3290859687859895,
        0.2544525965714599,
        0.08447018763278691,
        0.12320927324760136,
        0.2604994139461965,
        -0.037024513596697804,
        0.0721452231274004,
        0.06189685418990562,
        0.059285725269108955,
        0.25667501591395075,
        0.11582020514960867
      ],
      [
        0.18043414687047718,
        0.16568184596614535,
        0.11611307438711399,
        -0.3318452229233282,
        0.6334712266218452,
        0.12942077923720663,
        0.19348460931636746,
        -0.2528201072129855,
        0.3246487321112117,
        -0.026388723451000934,
        0.027248197819215024,
        0.3935153238798877,
        0.1427478650569569,
        0.2579052020064888,
        0.0783388514710496,
        0.2263219070182438
      ],
      [
        2.3827939736850494,
        -1.0214416455860318,
        1.9449186358057284,
        -0.5079727521904585,
        1.1519034484917696,
        0.8516796642941145,
        -0.4963529625870012,
        -0.9424530655526557,
        2.3410756928948104,
        -0.4837018357663402,
        -0.8286293133324104,
        1.121058278518395,
        -0.9456203071183725,
        -3.3893034187264237,
        -1.3689556604477005,
        1.2308379870151116
      ],
      [
        -0.4987472936496126,
        0.05847290925918921,
        -0.5565236377674806,
        0.3963195841746092,
        1.6218395696315615,
        -0.8178778490526571,
        0.021498171331494745,
        -1.6780205001995843,
        -0.7243400023581561,
        -0.2903891665224445,
        -0.09952362788831251,
        1.317238224715465,
        -0.8748225008302781,
        0.950042108022294,
        -0.9117227598085443,
        2.1249034444494965
      ],
      [
        -0.095063212009679,
        -0.0328760670658763,
        0.00950476668422927,
        -0.5997962649025912,
        0.6530279393978917,
        0.4478746781774295,
        0.31191615059059014,
        -0.4948538323530972,
        0.036746403383967854,
        0.07310620538373694,
        0.15306442291488506,
        0.033854571361770974,
        -0.18485663729070892,
        0.5273283139116045,
        0.3588304642315705,
        0.629372445712982
      ],
      [
        -0.864335438671378,
        0.34871520383826243,
        -0.7819193406596154,
        1.0435388307186881,
        2.9417941905866636,
        -1.2478299413526255,
        0.06815040111077819,
        -2.1491969299309845,
        -0.8384408221103523,
        -0.32682329664119897,
        -0.14763543399109694,
        2.294107987172209,
        -1.6155582359148273,
        0.5922804689623584,
        -1.5260974424537777,
        3.554198277128543
      ],
      [
        0.031492897412738,
        -0.08029977371277251,
        -0.21661621329915876,
        -0.10337642481363248,
        0.49876223222549354,
        -0.20419102742883208,
        -0.10415082202130502,
        -0.3170510382418868,
        -0.12003935165998171,
        -0.21346106254997702,
        -0.007741923748203111,
        0.3632957634733314,
        -0.5148370127560299,
        0.4345776828301205,
        -0.1455159650131629,
        0.431235386430585
      ]
    ],
    [
      [
        0.8242112885735953,
        0.9041522013571061,
        1.2018032886133365,
        0.1953030281053302,
        -2.3910166729395144,
        2.308750274739673,
        -0.9932043633325236,
        5.664626052513014,
        -1.7064281761876658,
        0.698650899878985,
        0.9865912457139969,
        -4.255032753235714,
        3.0207941432933003,
        1.489972231907676,
        4.776596330890907,
        1.0061311656490803
      ]
    ]
  ],
  "biases": [
    [
      1.8108843967126054,
      -0.7304844412794202,
      1.8456364638143412,
      -0.6218657976378658,
      0.5627134446896657,
      0.340422492857977,
      -0.34669302034989924,
      0.6334778721445511,
      1.9196879595706315,
      0.19705363498370124,
      -0.26253044933694986,
      -0.5383811435491895,
      0.21659436360182185,
      -2.5188164562441493,
      -0.05868218990933038,
      0.1021844064967385
    ],
    [
      -0.16788952537285196,
      0.0033150527967290514,
      -0.042952580550503716,
      0.12183274495541502,
      -0.07599115943804308,
      -0.4184652051692914,
      0.09959219616222055,
      -1.089636843213447,
      -0.13386876496709466,
      0.15471813668553022,
      -0.1638051478650343,
      0.11096950783512637,
      -0.8868115884776915,
      -0.18633451236482176,
      -0.9763895464489791,
      -0.2854100322961938
    ],
    [
      1.1558738067425534
    ]
  ]
}