/**
 * model_export.js  (AUTO-GENERATED — do not edit manually)
 * Regenerate: node ml/train_model.js
 *
 * Usage:  PawML.predict(userPrefs, pet)   → number [0-1]
 *         PawML.rankPets(userPrefs, pets) → sorted pet array with .mlScore
 */
(function (global) {
  'use strict';

  const SPECIES_MAP = { dog: 1, cat: 0, rabbit: 0.25, guinea_pig: 0.5, hamster: 0.75, terrapin: 0.85 };
  const SIZE_MAP     = { small: 0, medium: 0.5, large: 1 };
  const ENERGY_MAP   = { low: 0, medium: 0.5, high: 1 };
  const SHEDDING_MAP = { low: 0, medium: 0.5, high: 1 };
  const ALONE_MAP    = { low: 0, medium: 0.5, high: 1 };

  function encodeUser(p) {
    return [
      p.wants_dog !== undefined ? Number(p.wants_dog) : 0,
      p.wants_cat !== undefined ? Number(p.wants_cat) : 0,
      p.wants_rabbit !== undefined ? Number(p.wants_rabbit) : 0,
      p.wants_guinea_pig !== undefined ? Number(p.wants_guinea_pig) : 0,
      p.wants_hamster !== undefined ? Number(p.wants_hamster) : 0,
      p.wants_terrapin !== undefined ? Number(p.wants_terrapin) : 0,
      SIZE_MAP[p.preferred_size]          ?? 0.5,
      ENERGY_MAP[p.preferred_energy]      ?? 0.5,
      p.apartment_friendly !== undefined ? Number(p.apartment_friendly) : 0.5,
      p.has_kids !== undefined ? Number(p.has_kids) : 0.5,
      SHEDDING_MAP[p.max_shedding]        ?? 0.5,
      ALONE_MAP[p.alone_tolerance_needed] ?? 0.5,
    ];
  }

  function encodePet(pet) {
    return [
      pet.species === 'dog' ? 1 : 0,
      pet.species === 'cat' ? 1 : 0,
      pet.species === 'rabbit' ? 1 : 0,
      pet.species === 'guinea_pig' ? 1 : 0,
      pet.species === 'hamster' ? 1 : 0,
      pet.species === 'terrapin' ? 1 : 0,
      SIZE_MAP[pet.size]                   ?? 0.5,
      ENERGY_MAP[pet.energy]               ?? 0.5,
      pet.apartment_friendly ? 1 : 0,
      pet.good_with_kids     ? 1 : 0,
      SHEDDING_MAP[pet.shedding]           ?? 0.5,
      ALONE_MAP[pet.alone_tolerance]       ?? 0.5,
    ];
  }

  const MODEL = {"layers":[24,16,16,1],"weights":[[[0.5634365955310287,0.5636007315674944,0.4264859496502858,0.14383194428395804,-1.581120774765702,0.8229678342643906,0.1203251851837283,-0.5934721046162305,0.7893830762041656,0.13847450249061047,0.4076253105405276,-0.025297269744739986,0.4200407037122859,0.9397738433434021,-0.7019539945858118,0.13046866622159292,-1.0702968374223623,0.725143208106022,-0.025237387708333503,0.052720200845575806,0.631178172827939,1.0915731389127088,-0.05789340580509957,0.12127342692833114],[-0.6301768664207674,-0.8427405473426282,0.3365752167211999,1.5350794028628796,0.28351101365168446,-1.2126844999902824,0.3277990295353397,-0.20103646300760478,0.017712899192647923,-0.06776790280466354,-0.30463138260202033,-0.6278193286636959,-0.538024809559968,-0.296396737479941,0.8291152634810538,0.8729937422054372,0.07473980628937654,-1.316162004872983,-0.2995020530052929,0.1331909322591677,-0.1786236763458141,-0.4890722281004808,-0.48148093497907674,-0.8445230843014697],[3.6389174159293853,-1.6637016984579902,-0.22902835233606653,2.4270631649084247,-3.067812981340681,-0.05217331937202689,0.12232421473242414,0.18903144578613756,0.060532693724015076,-0.03728770404113007,0.1406060211745141,-0.007860711584846428,-3.57117477371221,2.550225647845639,1.2631452855186645,-1.5947825048945665,1.996981568772983,0.15065482177943404,-0.3382428590611196,0.691501192787729,0.3931705651639064,-0.3129169504312244,0.45234114337866266,1.2352485768909756],[-0.3774932340690064,0.31869492409882594,-1.9628657084608139,0.7467310171787143,1.1687713866348801,0.7369924069474707,0.5929534001025002,0.6286834414803243,0.20999044282144333,0.5999375497944381,0.813615090267592,0.31496616132417854,0.06130135745113188,-0.0565073020748262,-1.8263726967063432,0.523005589769053,0.8425864636267215,1.1822613369655226,-0.004597048540657585,0.6847069933773091,0.6901324054254242,0.028552452556362542,0.2833831481785361,0.9561860851690204],[-3.4886546386551327,-0.7674262122743383,1.3966468706782365,1.0461864390462905,0.6699072224573052,0.5489555611578493,0.6217958269871596,-0.9182070430628041,0.23820073707953845,0.12828880480901408,0.30295109874104137,0.3339612108731189,0.02924056639906808,-2.2303541474432764,1.0242256953149815,0.7533299461757129,0.09360528238205022,0.7473312962279852,0.2788728535160922,-0.07706938841029522,0.16564384465479942,-0.08131168927783954,0.004726315271028202,0.1775464838280531],[1.1264915769025003,0.24618846985526402,0.0933502667930776,0.1663666770264116,-1.8546571498662026,0.6979777551039397,0.09832358041462136,-0.3475446429438882,0.6989571143276253,0.04585027425739705,0.34181068927858554,0.0006498853978175089,-0.06572726925205295,1.2275526227390352,-1.0739338454991794,0.40321880781948155,-0.9533160957134527,0.6858641568478542,0.36716090998813755,-0.0909038321173786,0.644588444020843,0.9637148995282493,0.004261787816621465,0.12003375872489717],[0.4849633942996958,-0.9624036770412645,-0.30672020510552755,0.40361249296371166,-0.3328114208314847,-0.10522231584326236,0.21430192850034002,0.1864160127684222,-0.06514032430766187,-0.05236486621004678,0.005044597102653124,0.42340738465786243,-1.642463520219437,0.3012623439865194,0.3702891285722296,0.3169455846230453,0.6828444934389021,0.16433758630826525,-0.26672034741946116,0.3980893268721476,0.3403019321144678,-0.3393837298879078,0.14213725085135906,0.24709455673034272],[0.2602808592579715,1.5282059641568375,-2.943098410832187,2.0158084550222015,-0.8425355228118001,-1.3073275439029783,0.18125255870826337,0.017734992484155113,0.16913496829988867,-0.0004305853037785035,0.46287684632665316,-0.6924457511130648,0.8861482017918406,0.9247484893498775,2.21917218402368,-3.4238594948691503,-1.042423124514281,-0.060569498992239595,-0.0957633649814453,-0.5271090362724727,-0.5152420002798527,-0.38406070382004204,0.0840105077309381,0.4386064384580385],[-0.22282774515475953,-0.16945893790396122,0.09736193210440357,0.4270670551733498,-0.22012485276577978,-0.1310185921731482,0.09797819462578841,-0.11318883699960021,-0.2630733140710432,-0.34454236251341397,-0.5221334052581083,0.11277930346382305,-0.735584814631589,-0.33033370087862723,0.6147285563534934,0.5795477676553902,0.3497783538677216,0.14700055881581262,-0.0270003885457402,0.10651210936145335,-0.06778207401519987,0.08719191738050987,-0.1184166414326387,0.04991920860135958],[-0.5956951010902405,2.3967811999009485,-0.06923280366584167,-1.3024976522345202,-0.043656142946374946,0.15088455027510012,0.294217737675185,0.030030806517444233,0.2208692455074109,-0.1022518089815304,-0.13428074025150472,-0.49527524699297126,2.1596297847840775,-0.8476327719400905,-0.43269725912075613,-0.1882169776290019,0.15868593662893074,-0.9543603150037785,0.04702746773581945,0.4181753939922784,-0.13342034712926165,0.16839104565679086,-0.09025672930099903,-0.3692428821596987],[0.3400826493218747,0.35208163585312696,0.789979937869959,0.8365593190653563,0.690791545567803,-1.433898341053761,0.4470841702111086,-0.019742598346187926,0.20385595189178468,-0.21654180891309127,-0.24317452701630057,-0.08184489232466555,0.28962605434106076,0.16176858028397476,0.8622891991550712,0.4833399383057927,0.42067319135028647,-1.2556443898947336,0.01324667011474851,1.2681493255509715,0.6561427057429324,0.369148741022766,0.2677499917630119,-0.2204694884627749],[-2.727778626970326,-0.16993474778356288,1.098533125190751,0.017537931978164164,0.8994710935974716,0.38970664228334473,0.2696946735217359,-0.5093953507797767,-0.007327980095137416,-0.10242071796381733,-0.031733617681730636,0.31542647585148914,0.2477765577686742,-2.317116354595607,-0.18920806993749392,1.5450364829554473,0.2767325929192022,1.0367824449498468,-0.013151322182610961,-0.25354095093292994,-0.1616786026156049,0.3989319802629245,0.10861471974884301,-0.1020713135125168],[1.7572489678898253,-1.2245871514268012,-0.1385620520768555,-0.9580032035952071,0.47755242418534805,0.6129729346783526,-0.1446384612695826,-0.3376305735189774,0.9119159095497151,0.1315953065656876,0.1394563533998805,0.27114388310026866,1.4078744137729204,-1.333773717609382,0.2547843699816697,-0.28433276607974595,0.796876703702477,0.7552926756066108,0.2410275960019519,0.430928243654791,0.357552218735501,0.2482686907283234,0.4515331186148705,0.5101830652050103],[-0.275545409907071,-0.1725929645407207,0.09468373504586688,0.4183650259601175,-0.07389469657717132,-0.0041080032274966455,-0.08659535721926785,0.16611649503392437,-0.1279793923163759,0.2751235561403245,-0.09660193171548156,-0.11366581119012971,-0.5249142656110098,-0.8840552731647299,0.4143929038474603,0.2769636828605601,0.3725352279662371,0.19367779831542944,-0.07317558540177715,0.15265499595868093,-0.07197173517745961,-0.05790444469023695,-0.05426789041495634,0.022447028257942425],[1.5686170179129588,-2.2505914766088244,-1.416175571576904,-0.3644589449484397,1.4743407567671898,0.36821605398838064,-0.10891454965963988,0.5668946514811959,-0.9244929481251873,-0.16005315420377186,-0.23123895211049894,0.23313172827872947,-2.555015792086549,1.6089125620313691,1.6417025045498301,-0.20367482544396084,-0.5393831988781894,-0.4738364728013246,-0.04862031740068348,-0.41435562348954597,0.0747598315973437,0.5253083947810846,-0.28038752596845073,-0.739257753319172],[-1.0317217636715155,0.9278866565797755,-3.0918898255031704,0.9057276441916922,2.420033002190195,0.2094350383151923,0.1976556367514797,0.39995964962682173,0.1328412621712966,-0.1106297955700379,0.40156276318671486,0.0701086413630698,2.038709061319257,-2.0115766077525112,3.4596546293284485,-0.5414513666212092,-1.8518438124007666,-0.43572537069769884,0.2020826367168599,-0.6141182013281452,0.3094860266182084,0.9261575113685271,-0.033760264727181966,-0.4384759292600419]],[[0.2583529956962122,0.3738040121749803,0.2948821486388123,0.43758342191073013,0.16591907268627182,0.3781065257871336,0.1644191675892369,0.07841746003205854,0.26829696057112873,0.4038975820868161,0.19996027658593296,0.02224587813993782,0.14048368251179263,0.3560394871129094,0.32434958235893147,0.33116931333955213],[0.358091880166684,0.09854835245302693,0.02959336494214773,0.06888926635952307,0.5369522230864224,0.17681548375304568,0.09324984092094027,-0.1520215190546226,0.10989967663181631,-0.02731831488947936,0.022813892185044284,0.40201832647015684,0.4937479433627629,0.1976010919667527,0.44824146300771,-0.09769289370625522],[-1.3666169435682523,0.9130397047997252,1.9993039554516925,-1.8485861517739874,0.7459341866633385,-1.4872973309694035,-0.29994227685198016,-2.113117514237028,-0.5131740869056077,-0.4185970606518295,-1.2085301305067266,1.0768469403776197,-0.8123803297421021,0.03380206440985394,-1.0840952755014117,2.6420080409881934],[-0.16429445130661896,0.49535731402983524,0.22599311883072085,-0.14964968306144932,0.002618020169449938,-0.33277125100795424,-0.4811082599950193,-0.18244203339401632,-0.3179318513461261,0.17500789268583178,-0.003863725715406775,-0.17987621826980846,-0.39369757917688036,-0.6073130638685871,0.02761501440511935,0.06612286640018947],[-1.3738459356555743,1.3429382027681709,3.4186755262360884,-2.2247712511663096,0.9195899578887817,-1.3153529646309838,0.08954785401370868,-3.598404959200932,-0.19830433719451546,-1.2087504931303843,-1.9540218215880119,1.2425137386457417,-0.9321761866513504,-0.09674388524139155,-1.5804155111659681,3.540963261734181],[-1.0186248367752642,0.15864743824631522,0.7431754055712999,-1.3708715476283202,0.35936817162960316,-0.8741135766299843,-0.41729514529121886,-1.2370616972051804,-0.4327266444407661,-0.01433841412504284,-0.8758668705080526,0.668472644114556,-0.5735681480429031,-0.12283449465125232,-0.7664204526383075,1.5850108883558558],[-0.36274368893170894,0.4485740403297385,1.126054203452791,-0.8408922176665455,-0.20078028869823936,-0.05246547502627785,-0.09224289444642016,-1.1202198985784984,-0.33256121077526957,-0.314674685809316,-0.5462330763518305,-0.5811936224221832,-0.38636123237258574,-0.3026090575724917,-0.23000887185305846,-0.06736758332825699],[-1.0069233423785586,1.2429862180499789,2.138464385423555,-1.557489512894612,0.6995789211114954,-1.22011991615783,-0.42978584863083336,-2.3113112295398786,-0.34220884257950585,-0.8876255517706517,-1.359045160921783,0.6875433094532627,-0.6649072563270637,-0.1464503894323246,-1.256309768039222,2.3670438174559134],[0.24886113947175334,0.29961637565516663,-0.2815319705023955,0.05123354604444762,0.5984752148038848,0.2557447757460468,0.124810355923244,0.029605789194064126,0.14405842838097974,-0.3596441798239553,0.10622830982978128,0.4418458731269417,0.40530556057203443,0.22322253494303754,0.43522369483636547,-0.3571774298709481],[0.16971007981057376,0.3414408396907956,-0.5149118325190585,0.4041727849477114,0.7318459909768188,-0.11077859695561315,0.21551443220315006,-0.06650119933539365,0.04860672925262552,-0.35666496797738684,0.17336870176304936,0.20940034140107697,0.765099973735011,0.3336326386087654,0.3739774219092341,-0.18062581479468012],[0.1080657201429364,-0.45099514716043165,-0.5799620561809733,0.8024284173371246,0.011026820212023425,0.2396657326878051,0.8253065174625288,0.6004016297644409,0.2971775263337848,-0.43634471824716203,0.20261775656245554,0.21526600069762128,0.4924898662125403,0.5149213343119595,0.8240791694606961,-0.7864402454267486],[-0.1482396960369992,0.20508222463132889,0.07535795922671161,-0.10008683655319892,0.08182302589167781,0.11138812242869196,-0.1172967689493385,0.3366397417060063,-0.09191149173362376,0.20372907693220246,0.3470986795254826,-0.21619199061354186,0.061574423065962676,-0.3992199746323476,0.0018686237565407801,0.17191391329486627],[0.06889276236276685,0.12944162780726237,-0.03448294304800318,0.3405194016009522,0.18007468519346337,0.031162038142769907,-0.07294429080995497,0.11232274473335022,-0.1851732665277857,-0.033041086798441914,0.35755778934339305,0.051077046747841366,0.30639496118895604,-0.17301612056439117,0.3416318497119411,-0.2516287310784881],[0.010863640752295647,0.03978053387049909,-0.41805965733405087,0.0882560955583223,0.5076361970166181,0.043513030600511544,0.3754663305847133,0.39474089749783825,-0.032373558801183415,-0.20986090392459894,0.07317293571496802,0.003779503542688112,0.3003332197488385,0.143392480546275,0.5227185883616065,-0.27109657274733184],[0.22762644287515527,-0.36231953127380906,-0.5411800578498089,0.5315379271792896,0.3437682878234371,0.2683270151260936,0.24868244129958356,0.2010699618776486,0.2998618386400879,-0.12231678561518514,0.2977635501902758,0.039094066452758425,0.5477457534378031,-0.02279792305733455,0.1728348394449423,-0.43008112509461394],[-1.1236836614977164,1.5759492386479443,-2.200263459382108,0.2745216216400991,4.420687745769438,-1.2979505558800581,1.8634527951463493,-1.5723409135373303,1.3831149544084187,-2.875931820635956,-0.10262699696776828,3.17004466474831,2.672174451145382,0.7281418658621471,3.2342467321801123,-0.9878053681944977]],[[1.0106175544313654,0.45779074141051157,3.8396561549971646,1.4931329061632308,5.439302653251594,2.3890228124127795,1.8747452862076248,3.702562396699963,0.10674564125073856,-0.05878488023456307,-1.0346434619405618,1.0306634494828304,0.3143137558464215,-0.05242265572708804,-0.26281340503557665,-5.669698912957286]]],"biases":[[0.6266544091365758,-0.16193407545517433,0.46708203711278473,0.9229069448401784,0.8148501384596748,0.9306605346462055,0.12567555795612156,-0.4219782607040428,0.5421796482448589,-0.1593004032335557,0.9260056659177786,0.5903991429733177,0.8415126104752323,-0.1237527810509314,-0.5998169382449082,0.9776154288555011],[0.5054276838145569,0.22865617747533995,-0.3801351206229631,0.15618892818209137,-0.8656143582562497,-0.4986994558153653,-0.24193582895534288,-0.40753431355435316,0.15051926190826187,0.31858620365978263,0.47872277077286873,0.1964053250434234,-0.011725370300426294,0.1006327177948598,-0.04153818101026312,0.8632847539981082],[1.1837741234064494]]};

  function sigmoid(x) { return 1 / (1 + Math.exp(-x)); }

  function runNet(input) {
    let a = input;
    for (let l = 0; l < MODEL.weights.length; l++) {
      const W = MODEL.weights[l];
      const b = MODEL.biases[l];
      a = W.map((row, i) => sigmoid(b[i] + row.reduce((s, w, j) => s + w * a[j], 0)));
    }
    return a[0];
  }

  const PawML = {
    /**
     * @param {object} userPrefs  { preferred_species, preferred_size, preferred_energy,
     *                              apartment_friendly, has_kids, max_shedding,
     *                              alone_tolerance_needed }
     *                              apartment_friendly, has_kids, max_shedding,
     *                              alone_tolerance_needed }
     * @param {object} pet        pet object from app.js PETS array
     * @returns {number}          match score 0–1
     */
    predict(userPrefs, pet) {
      return runNet([...encodeUser(userPrefs), ...encodePet(pet)]);
    },

    /**
     * @param {object}   userPrefs
     * @param {object[]} pets
     * @returns {object[]} pets sorted desc by .mlScore
     */
    rankPets(userPrefs, pets) {
      return pets
        .map(p => ({ ...p, mlScore: this.predict(userPrefs, p) }))
        .sort((a, b) => b.mlScore - a.mlScore);
    },
  };

  global.PawML = PawML;
})(typeof window !== 'undefined' ? window : global);
