/**
 * model_export.js  (AUTO-GENERATED — do not edit manually)
 * Regenerate: node ml/train_model.js
 *
 * Usage:  PawML.predict(userPrefs, pet)   → number [0-1]
 *         PawML.rankPets(userPrefs, pets) → sorted pet array with .mlScore
 */
(function (global) {
  'use strict';

  const SPECIES_MAP  = { dog: 1, cat: 0 };
  const SIZE_MAP     = { small: 0, medium: 0.5, large: 1 };
  const ENERGY_MAP   = { low: 0, medium: 0.5, high: 1 };
  const SHEDDING_MAP = { low: 0, medium: 0.5, high: 1 };
  const ALONE_MAP    = { low: 0, medium: 0.5, high: 1 };

  function encodeUser(p) {
    return [
      p.wants_dog !== undefined ? (p.wants_dog ? 1 : 0) : 0.5,
      SIZE_MAP[p.preferred_size]          ?? 0.5,
      ENERGY_MAP[p.preferred_energy]      ?? 0.5,
      p.apartment_friendly ? 1 : 0,
      p.has_kids           ? 1 : 0,
      SHEDDING_MAP[p.max_shedding]        ?? 0.5,
      ALONE_MAP[p.alone_tolerance_needed] ?? 0.5,
    ];
  }

  function encodePet(pet) {
    return [
      SPECIES_MAP[pet.species ?? pet.type] ?? 0.5,
      SIZE_MAP[pet.size]                   ?? 0.5,
      ENERGY_MAP[pet.energy]               ?? 0.5,
      pet.apartment_friendly ? 1 : 0,
      pet.good_with_kids     ? 1 : 0,
      SHEDDING_MAP[pet.shedding]           ?? 0.5,
      ALONE_MAP[pet.alone_tolerance]       ?? 0.5,
    ];
  }

  const MODEL = {"layers":[14,16,16,1],"weights":[[[-0.25548250353997537,-0.41428265586606383,0.32680961579224194,0.6986315582581057,-0.3428818741500039,-0.1944514944109339,0.6424780624317398,-0.6208254233150118,-0.226213724394776,1.2153496734357447,-0.06503656727684927,-0.6147203254727902,-0.7741021290326685,-0.3675923340209434],[0.0010365698000983157,-0.12959501208155058,0.04410089840422913,0.4700507549748385,0.29452235654503606,-0.14294745304852144,0.36628467981819984,-0.3792388620716827,-0.3319384550215297,-0.6493404961262528,0.5164115829528286,-0.6820929258283032,-0.23309844517785855,0.8107697527549411],[0.09583659389030341,-0.2167731742038301,-0.23378129199334594,0.2713120085706947,0.2899009846493192,-0.021954896863012677,0.2479770167009154,-0.5740901494134991,-0.3313449686016803,-0.2964952941143413,0.47037465178570914,-0.7432788462177026,-0.30801449724703367,0.3273198201228424],[1.0459886165417782,0.6662487021587369,0.26590780635923417,-0.29742086126640527,0.24831219965938578,0.4520445007146079,-0.45701829989766496,0.6125315612794776,1.1334264726359444,0.17897145383870486,-0.3933437740390288,0.919025982503544,1.497689397822876,-0.23061726642307478],[-0.38260401456103443,-0.33663028122565797,-0.046181052418697806,1.0216153960837975,-0.19356245818280926,-0.18515978609326486,0.829607617183752,-0.7350727504493105,0.07909837479840677,0.7527367675824758,-0.02368625181005846,-0.9951826188032099,-0.8559107473731729,-0.6345340956368785],[-0.7123232599030646,-0.911227349970176,-0.049791944851640596,1.1487592767971053,0.41638352913917565,-0.7947989048404228,1.0047254124602514,-1.1401278213238049,-0.11853333604186746,1.9452052371936754,-0.8774565527981502,-1.0635534294958588,-0.037524147308246,-1.2579428084028637],[-0.08298341787229245,-0.3320401653960655,-0.053838864952332866,0.1684480817738812,0.48677977803228145,0.1618817471007246,0.3956980844765566,0.0793955586188912,-0.28774991132916244,-0.2173029410866564,0.38204417834406224,-0.37337952717841977,-0.01790627738276165,0.39874095753596517],[-0.7026093243093454,-0.8735014286274023,-0.10946265867810086,1.028711461862732,0.320059529594606,-0.5003099297115889,0.9978980405883778,-0.7807216497721822,-0.15565544998245837,1.4272632924276198,-0.8481851250726132,-0.9466363380816839,-0.08753377372502255,-0.9652352373827308],[-0.6167487250557315,-0.3139009524353122,-0.9356626506479417,0.9770417876119536,0.17098121195038976,-0.229863259853514,0.524357802169972,0.5018273767810875,0.37961091579254563,-0.049935312696522564,-0.31322203972835955,0.6332895259040241,0.43115650898989766,0.07054458012726422],[0.1326861044520877,-0.07524971783865383,0.31256994596868337,0.19745323522132863,0.29042441983225603,0.04596484339638471,0.3808205745200559,-0.21842901636555964,-0.11519402066521965,0.20815050469437266,0.1891469033566912,-0.06798389570337152,-0.12209071437239949,-0.18697482969385792],[-0.3338921158266939,-0.5476574886216461,0.06121914849273598,1.1396870169696114,0.07365775526742266,-0.4986532986895534,0.6564996991638955,-0.9514760197669325,0.21249854751887548,0.9226693373288813,-0.1844211178613873,-0.9326441495890089,-0.5896634093991774,-0.8042994332043929],[-0.913559302416293,-0.7012569034388314,-0.0715521784133531,0.795210113315743,-0.4897478838753295,0.08232082062696001,0.9113385157701975,-1.094527296568938,-0.41540833469673843,0.541361368202904,-0.03141272863236045,-0.8836463441521657,-1.0158532449928788,0.029407139114596033],[0.9138491109067924,0.775088835661232,0.4916764786205872,-0.17352623202396816,0.5532805753628176,0.054711048623515675,-0.30388817649803734,0.7661531866389076,0.6439331911638451,0.04285621337077059,-0.1829136222263331,0.9217170720130732,0.8095594147601287,0.04882619530308522],[-1.5848062061539665,-0.863703037924389,-0.34037480684215243,0.3958134705426364,-0.7113518777006986,-0.42950281591492845,0.9240606519607364,-1.6167150836967557,-1.4363839011358628,-0.41586821345230857,0.6967412083456038,-1.5487672341683214,-1.692266023925627,0.6387067029162337],[-0.8266705029811183,-0.8258535600933264,-0.117164463393764,0.4989328539991143,-0.19478716985837594,-0.44708696781324353,0.5484393062682724,-1.1324896261931756,-1.2093406454702391,-0.313899559911312,0.568640018459859,-1.0479001581418006,-1.5547514676308687,0.7695127075360548],[1.5403519845804698,-0.2832229727984212,-1.398417834519068,0.04563473661862557,3.1820328863473564,-1.0279493114033325,-0.8336776053709378,1.8511453547401029,1.5966647008253088,0.5324629096959435,-3.1952665111977123,1.783691218943688,0.07689255918476282,-2.16842394428862]],[[0.2498416420991431,0.05948755073775122,0.19230024257043182,-0.16499715890172897,0.32746475723122703,0.07774257340842401,-0.07905130796218213,0.17910821970668317,0.21750563160114753,0.26968195218104457,0.20716397991915064,0.19903759185793982,0.022870219038435124,0.6148840518062861,0.30710035702482263,0.34198835056115046],[0.2657849256535108,0.2801024837047157,0.058730263864657635,-0.18829851900378694,0.4971023511265136,0.11460544548130415,0.2678095334327508,0.33521601764786335,0.1377369971272568,0.1814677905576172,0.29926019341232024,0.3102397962560201,-0.3055971278624477,0.4759799070690453,0.22768172352116575,0.697387545409774],[0.17868711514942218,0.22740542688323526,0.19160115603634909,-1.220609658641254,0.6184871715017631,-0.10110926835736254,-0.003959663851112817,0.11255564227046333,-0.13370706323785603,-0.029797136272929157,-0.0021515165575353213,0.8652659082916244,-1.1701900924339064,1.4427523770301776,1.0432073063306526,0.7663851898709972],[0.34194861921118125,0.6299135709562789,0.3630463349032523,-1.1830673620296699,0.6094792574797989,-0.1474177850829126,-0.016887577730666403,0.037062743622026176,-0.15314515536516587,-0.050200870240971765,0.5062105607994015,0.9337117572854985,-0.7280279769159017,1.6713046776032296,1.0029096395965598,0.8625271404015303],[0.39975450709472254,0.28928714696630725,0.3013289293993221,-0.28020335017294795,0.1551995323403908,0.19947610322852552,-0.14338487919442228,0.3064699185332166,0.012250352446653102,0.0909790822831099,0.15405789272472417,0.4668901022878674,-0.022602519620413392,0.31144451952281527,0.38329611774021993,0.444099441670663],[0.40658678399234177,-0.10239674733075602,0.22242763335571267,0.1743189881795526,0.7174510076046131,0.7049377873414259,0.26955059295660244,0.8405648790902006,-0.4529273863579112,0.3429081393170457,0.830471147753729,0.2956189509988916,0.2970888358511666,0.1270421287337956,0.0767613765019237,-1.8404161088911484],[0.02992877861419358,0.4089674526006937,0.3152560032058439,-0.11628649511028215,0.24726662697835336,0.20972079284173092,-0.03548885484702176,0.273834633302446,0.30122574271040214,0.4045651155419474,0.05443788019080229,0.05330408711011457,0.26372988493020855,0.10912603958821299,0.1577015605216996,-0.13690064141571692],[0.24632039363248168,0.01134319768139744,0.3244997290911278,0.2824443120301744,0.40025746607582763,0.31930065406630065,0.4337697209190105,0.3447233321745643,-0.010986632065404121,0.3496188407829052,0.5701920499089137,0.2391844079690838,0.05959710633848609,0.0846136416494465,0.0665734803524011,-0.760986247426414],[1.9222193401818528,-0.5175234620876539,-0.10696007702341011,-0.180824309673523,1.8385624814389254,3.041842870618482,-0.3659717169435516,2.578631650214682,-0.9395470024621212,0.40282231494386045,1.994443130163977,1.4776094993454634,-0.5719653742451117,1.2704904842060947,0.38544376253654516,-4.231210286777197],[0.16481645632331224,0.33170702156383025,0.22256048062993145,-0.4134297840860505,0.030274736579465406,-0.1535333885879432,0.001307316436036442,0.2780146760509824,0.2615844882673859,-0.13494105456652566,0.03523780262797983,0.4319389547048488,-0.20130753857072584,0.651161589391609,0.6128760392272409,0.19812895259878954],[0.38132182690123956,0.6394706766959262,0.5091899854510076,-0.9555829263733879,0.31197325053308794,-0.0029805448320667297,0.24990113906198333,-0.025133926661987778,0.10192439072697772,-0.11627728295028747,0.12380934006766531,0.5553360299049119,-0.856876880516073,1.501282808746742,1.0284180667361318,1.069783258851334],[0.150831774150211,0.29696803718527764,0.17899101510860443,-0.17999991025813278,0.35280823254558913,0.1994617699343826,0.3374991582554238,0.3449100253440736,-0.08882946314316073,0.3139381228352258,0.0727076113465227,0.5571723286243404,-0.5742771434476169,0.40101482908496916,0.40367883900223317,0.6223058701391005],[0.2152884681688917,0.1592957666311478,0.3629642072377071,-0.43978279234318784,0.1572602981204189,-0.15842593934765475,0.21033240633850014,0.18692824790145884,0.22302521608802015,0.08918080021726253,-0.010160842564181585,0.5969948701163019,-0.3433256711451887,0.6415262749388612,0.6094077575217628,0.4189496309303621],[0.1500328495654226,0.1505119660593152,0.4344107710665154,0.02123856619848062,0.13292065590806063,0.21387559791372898,-0.0010247690873428758,0.09663951427108142,0.09256601053017831,-0.05005932904555363,0.43957638333679117,0.20304856840610885,0.20458216949715025,0.307304255288156,0.44904223884068617,0.06554917762260791],[0.3676764894954027,0.18553002949965372,0.3583751301177432,0.15423699020891962,0.5052708639340003,0.9461598362914455,0.13303633294441777,0.49641121583842096,0.008266111407461647,0.08611318286918178,0.7070029086196838,0.5969154452186711,0.16601159314196962,0.31004307307803836,0.49946237959996337,-1.3610532390985062],[0.5108446300451164,0.22175640926197238,0.1908111380295203,-0.40433909680064944,0.2445445036873148,-0.03941649855730855,0.25351820153755433,-0.04132045347188903,-0.04647743112301577,-0.06498949951630816,0.34115280825484545,0.5574878719117617,-0.6728733467285407,0.9734235986208107,0.7028926475323084,0.5189200826835247]],[[0.6629911289514329,0.9849876055269894,2.3680294594637,2.4940264083227026,0.709583996869563,-1.778300692998472,0.09024936218994659,-0.6625289412337577,-6.470574617830835,0.8509186348609448,2.2321118349682942,1.0326405967377243,1.0532360431035113,0.34209560972638514,-1.279884154504775,1.387821751221427]]],"biases":[[0.6466033832018577,0.07485527690544523,0.3692987425276179,0.18007585103370444,0.629133472308414,0.34853938321537026,0.1415732692716824,0.4447051187139199,0.26558976136443513,0.036960300386038605,0.45796061148114287,0.12982108248894653,-0.08714918345063635,-0.12949449548709469,-0.14021269529790364,-1.9594601669618903],[0.20781119550665855,-0.09708541053342748,-0.8867200085279516,-0.7475802720448987,0.2173860425325732,0.5967557316893887,0.35294064779212003,0.6993554915394739,0.31392124406254,0.2954549329170156,-0.4694881006557979,-0.09938903589259675,0.015055210306920619,0.13690808190867787,0.32860909898517826,-0.3086825246700122],[-0.4694699321633683]]};

  function sigmoid(x) { return 1 / (1 + Math.exp(-x)); }

  function runNet(input) {
    let a = input;
    for (let l = 0; l < MODEL.weights.length; l++) {
      const W = MODEL.weights[l];
      const b = MODEL.biases[l];
      a = W.map((row, i) => sigmoid(b[i] + row.reduce((s, w, j) => s + w * a[j], 0)));
    }
    return a[0];
  }

  const PawML = {
    /**
     * @param {object} userPrefs  { wants_dog, preferred_size, preferred_energy,
     *                              apartment_friendly, has_kids, max_shedding,
     *                              alone_tolerance_needed }
     * @param {object} pet        pet object from app.js PETS array
     * @returns {number}          match score 0–1
     */
    predict(userPrefs, pet) {
      return runNet([...encodeUser(userPrefs), ...encodePet(pet)]);
    },

    /**
     * @param {object}   userPrefs
     * @param {object[]} pets
     * @returns {object[]} pets sorted desc by .mlScore
     */
    rankPets(userPrefs, pets) {
      return pets
        .map(p => ({ ...p, mlScore: this.predict(userPrefs, p) }))
        .sort((a, b) => b.mlScore - a.mlScore);
    },
  };

  global.PawML = PawML;
})(typeof window !== 'undefined' ? window : global);
