/**
 * model_export.js  (AUTO-GENERATED — do not edit manually)
 * Regenerate: node ml/train_model.js
 *
 * Usage:  PawML.predict(userPrefs, pet)   → number [0-1]
 *         PawML.rankPets(userPrefs, pets) → sorted pet array with .mlScore
 */
(function (global) {
  'use strict';

  const SPECIES_MAP  = { dog: 1, cat: 0 };
  const SIZE_MAP     = { small: 0, medium: 0.5, large: 1 };
  const ENERGY_MAP   = { low: 0, medium: 0.5, high: 1 };
  const SHEDDING_MAP = { low: 0, medium: 0.5, high: 1 };
  const ALONE_MAP    = { low: 0, medium: 0.5, high: 1 };

  function encodeUser(p) {
    return [
      p.wants_dog !== undefined ? Number(p.wants_dog) : 0.5,
      SIZE_MAP[p.preferred_size]          ?? 0.5,
      ENERGY_MAP[p.preferred_energy]      ?? 0.5,
      p.apartment_friendly !== undefined ? Number(p.apartment_friendly) : 0.5,
      p.has_kids !== undefined ? Number(p.has_kids) : 0.5,
      SHEDDING_MAP[p.max_shedding]        ?? 0.5,
      ALONE_MAP[p.alone_tolerance_needed] ?? 0.5,
    ];
  }

  function encodePet(pet) {
    return [
      SPECIES_MAP[pet.species ?? pet.type] ?? 0.5,
      SIZE_MAP[pet.size]                   ?? 0.5,
      ENERGY_MAP[pet.energy]               ?? 0.5,
      pet.apartment_friendly ? 1 : 0,
      pet.good_with_kids     ? 1 : 0,
      SHEDDING_MAP[pet.shedding]           ?? 0.5,
      ALONE_MAP[pet.alone_tolerance]       ?? 0.5,
    ];
  }

  const MODEL = {"layers":[14,16,16,1],"weights":[[[-1.6837808629206235,-1.2856734115975323,-1.5109577044424183,0.3346873214985988,-2.7014084196016777,-0.13634195205153093,0.5877512497338184,1.9117460193192284,1.5019089600948803,0.7085658178170787,-1.8150843835964017,1.6064067719428665,0.42226516832728456,-1.236216567278816],[-0.8627314686532483,0.048808136462115,-0.3842556762713008,0.8723683557968418,0.20981706180980586,-0.5314946652847504,0.2424290204218315,0.6455154866519579,0.5075105791185536,1.4501365904886574,-0.22397684482524235,0.8370691260162207,-0.36702571642676335,-1.0487444849526781],[1.3215505018791214,0.08259061675913262,0.17049131834138753,-1.073571827850658,-0.19753523621443894,1.311375767633915,-0.10259376284365757,-0.7133177286935847,-0.5202338670151716,-2.296437173654032,-0.15807259502402163,-0.9198078628153125,0.44387827009675546,0.9490400431083211],[-0.12965277114865711,0.0871542530699114,0.14321930007734338,0.08018922920730877,-0.1210598309584085,0.029832625676182122,-0.18482693775516723,0.15476003475626351,-0.19439697390183816,0.14307619630286256,0.050886385661177994,-0.20610488998583035,0.08400319721561107,0.05745381168638922],[0.41620892675972615,0.4429174333727896,0.9633842584829309,-0.32945115269144964,0.31545261518340956,0.37527688153643723,-0.08579713520111558,0.02549097784901191,-0.18676859731791898,-0.9008457233868764,0.5335205817436647,0.4928507948568212,0.7769875516595875,0.9389056619306252],[0.06822133099860786,0.28467393559520077,-0.6908169611528149,0.1283963891292606,0.5164334697952494,-0.6583439455488147,-0.19447115563167808,0.11959861970753931,-0.18374758551104506,-0.9334155344832505,0.854588657419453,-0.405463305947591,0.3091963830626989,1.1071998795908653],[-0.6843140038589807,-0.385310839683388,-0.39510849248997615,-0.09479576575459008,-0.3133729212861406,-0.43898836587340495,0.07347868608208688,-0.059458921918363744,-0.3052491069207527,-0.30289877177971763,-0.18538761400879059,-0.07488804551042931,-0.03163744971332412,0.2431548681590339],[0.14778209903590747,-0.004102648927649218,0.022998269297746076,-0.24918725925945534,0.055699889823477254,0.3112252123601123,0.2143427623139607,0.06907336067009671,-0.13364198966331714,0.10008033608203884,0.26013794809404384,0.19123252446353958,0.2557955658518799,0.012834459940054842],[0.8640581956461437,0.5334991969710159,2.4813285953617203,-1.1064718411928107,-0.1497605125383728,2.360055362990696,-0.577196373971922,-2.069509388925331,-0.7102810244724823,-2.175939878607784,0.39492836860578123,-1.3232450314424422,0.5760049891620068,1.6492880866334858],[-0.07373681666794539,0.1770663172761858,-0.026627487562323676,-0.0881240458980996,0.18922946181810008,0.2867956371156495,-0.03018369245993513,0.39137284270127254,0.19238944673495856,0.15136604569654522,0.12881372371611982,0.5895088471782494,-0.289185240994461,-0.35319028462989405],[-0.12657317589633044,0.4423694541823898,0.26315973945142296,0.06656159832924015,0.12671538669806381,0.013297429418179083,-0.24663946986775126,0.4802248516940026,0.4850584378601606,0.526826740377114,0.1409802627416017,0.9048903574782794,0.06765900737678898,-0.29842638951945005],[-0.07923551959583265,-0.01121678152728104,0.25660287416928085,0.10770457602221144,0.28720331920941344,-0.15386233008902478,-0.16706183860712204,-0.05287256825082764,0.3017984952162386,0.046433278576811426,-0.04498305638993783,-0.03825333707188514,0.08210935915715838,-0.32294403073772615],[-0.04299152291303251,-0.06018644554687557,-0.20074874382721639,0.2812009099995377,-0.2881647605458428,0.10997795502690005,0.24285535251866577,0.1271187237850798,0.04611515318424309,-0.3648740605247989,-0.055219568079892714,-0.2419227925080964,-0.003652728183194967,0.3876621426944258],[-0.5453674128810695,-0.021640931058517946,-0.8625996762236533,0.5506911016382396,0.009246605206200825,-0.7536861011895394,0.26101637410966966,0.3581862004516104,-0.1489346340544942,-0.5202034098885728,0.6150424505005818,0.04902278359473545,0.4054072713742852,0.962672106352089],[-0.26559413826764977,-0.07214562912266739,0.3936793014278882,0.010749845294509052,0.2339853947178066,0.1606054220371152,0.10661990975416398,0.07638629212481499,0.0865910821868918,0.018884480213185926,-0.1623960626761549,0.5356416777016203,-0.18130927980532627,0.003914778670323871],[2.925711233469675,-0.3438468771010531,2.6899082216405574,-1.0310967577521561,0.6218672251412235,2.25649593163447,0.22472089114568192,-1.4519266360448575,-0.6040941727456447,2.0944459323426154,-1.1006448015621786,-2.7376368419903607,0.019892293205128052,-1.6340035802358062]],[[0.08949668447398913,0.03931207122026028,0.25493427067247715,0.11962055800423145,0.11846125813826566,-0.15568109069174943,0.29890307294742496,0.26959454233338115,0.3683382825328609,0.24021939023745198,-0.08293004690317844,0.05866424527329515,0.05773791762501263,-0.20452894968165813,-0.03318321749116207,-0.010424815477212798],[-1.1169469344096712,0.5188143038919512,-0.7708606568228777,-0.2020295132682518,0.5572246728060026,-0.4279800408758846,0.11235025137235002,0.23412447639450948,1.0558668006837868,0.17338219726873372,0.07655343507851776,-0.042857060170138066,-0.3556406529694042,-0.3169018016622187,-0.11901274696649101,-0.9912858873987012],[-2.282744636987712,0.7120269150198498,-1.1349791971934426,0.21011729359796458,0.8515770780077823,-0.5575489950032702,0.06652307686797594,0.29554973486229397,2.109035226169876,0.6274773290708705,0.586202539963167,-0.003381314155967942,-0.23425209913465303,-0.4733152840827352,0.44121197160547865,-2.5783633657448095],[-1.1045386765385883,0.7160422481067296,-0.9386482117826878,-0.01837925569292615,0.5886154559475413,-0.49333588889999247,0.2744637781689357,-0.1524007016129386,1.331888077455186,0.2153531005181706,0.29848009526730523,0.3878830741296471,-0.059058571104398605,-0.6798713523653783,0.19394930920576714,-1.48862076418878],[-1.0378245591668935,0.738558043752558,-0.7315791696845422,0.18004530976503338,0.22742607438889856,-0.5382139297606371,0.3336848866443696,0.22461207204356304,1.0239998792211098,0.049788774115965787,0.47408258203558645,0.08602154394414785,-0.2843628281694053,-0.37851517307260485,0.4465216760654464,-1.3419478352058654],[-0.3975912020379799,-0.019319106525823828,-0.26199549456351,-0.11391810476390886,0.16413135175561253,-0.17746779730823803,-0.11547311858812744,-0.11399767678783573,0.27732092355552573,0.20686381549281038,0.027946489572670805,-0.04226599026613724,0.19647170039781592,0.003505493999000368,-0.10256953682641619,-0.438534149209266],[0.6208536892777559,-0.20995324119223893,0.2714616310897439,0.07328931507649702,-0.22876178560844265,0.4058243200287113,-0.19666360248248455,0.1856034940990554,-0.6763827525557793,-0.020790402473961852,-0.16942547680707506,0.1577542705979458,0.2340105849450828,0.4619266758042123,-0.31408036404058454,0.5624732164940818],[0.5859375145835489,-0.07593195724610036,0.5226576660187182,-0.09900423305751814,0.1025280919294978,0.1507004211403438,-0.12647766263162216,0.15135101315756916,-0.3889809337698312,0.14646014040937333,-0.08659254720471818,0.11878925986527779,-0.11394573297129433,0.19580599440060895,-0.029807944387546713,0.4980195251170119],[1.1877650480661894,-0.5003438349245175,0.6535298869033659,-0.09551159209172673,-0.1249004066567523,0.678403388869281,-0.20636593471834194,0.03325629323293343,-1.1725589056238652,-0.08229572520674107,-0.31415906177696395,-0.040353799756180066,0.08017692350637771,0.824531066157589,-0.08883350422703501,0.9859174311628809],[0.44385771349048686,-0.47009911913285707,0.5156672850506591,0.10333258868745111,-0.25657232915016426,0.4111637257739724,-0.15495463873423823,-0.15788788550678923,-0.7620631450235509,-0.04234860676909135,-0.07637566679752907,-0.1067599040164413,0.30586657067172995,0.3366446048038551,-0.09950651397364124,0.6619574676737806],[0.6848913313841243,-0.45905877462491124,0.19752535190193335,-0.02318379970180686,-0.3934628302417253,0.24560431286590753,0.03670832825033205,-0.04776530413711503,-0.5055444644151008,-0.25770351963057114,-0.3656971882629622,-0.3301509553144393,0.13587703695712242,0.4336508033942726,-0.21863818722381287,0.9450092978410307],[1.4850096039039202,-0.622483247624522,0.7597839661465027,0.2129966104639323,-0.6640594761880073,0.3436992944218405,-0.2576601618601971,0.20925549291595516,-1.4588441920865332,-0.198228239154965,-0.2875383432388436,-0.11784246628098755,0.22930428503342404,0.40486571562642193,-0.0008528746126019299,1.4477597759212373],[0.09870664686519957,-0.04409254409860631,0.013382278174791845,-0.09097632117610852,-0.08097503311492796,-0.06922949693013002,-0.01572857318471217,0.25333162664839354,0.16804869601819175,0.19817428725324973,-0.1487701977172868,-0.09145244385517644,0.08417324907365423,0.28364295945160406,0.15918404278542728,0.16962988902978973],[1.4097376719954593,-0.4881184721656476,0.5587009204892939,0.06844114240800755,-0.6911698778762315,0.585871800294898,0.04423153748055495,-0.19406151649964964,-1.5418178109935448,-0.3366291991471219,-0.6044127413982576,-0.47676712735372384,0.2586930176393627,0.6728145452265083,-0.1649734084967013,1.826325790861985],[-0.9824603847900093,0.3115520563357329,-0.2949057017537963,0.19622784350304692,0.47177755083835055,-0.3520403805750337,0.23092473139055716,-0.014351096562235283,0.7591684386124306,0.2148338147310113,0.3668356474502528,-0.0034509092167382964,0.09118500287105313,-0.4883513658918213,0.1585008383900568,-1.0725146160353505],[-0.013865390788503816,0.2795717753842436,-0.25079401415963004,0.21006547693007038,0.0465881288106717,0.0673696080920339,0.22458252550168342,0.03815059584721405,0.49554731008473846,0.11893472225679654,0.2504735094389842,-0.061221094103890955,-0.12388946872464222,-0.2494347825716893,-0.14784649144141004,-0.21537641716607395]],[[0.10862600015064025,2.019157468765604,3.9999634173329275,2.5591178269639014,2.2070477741111247,0.5534798416634165,-1.334643456416098,-0.9633841294330682,-2.2857670333012283,-1.4170169951315053,-1.5005602614179951,-2.711015989662951,-0.2062447415260004,-2.992419768861444,1.7074750218040136,0.4851015877757205]]],"biases":[[-0.7198276651845064,0.17069653807916244,-0.0363442548427594,-0.0891931774588049,0.4018132752510982,0.21306730964333775,-0.17703741279253873,0.28100570394132646,-0.31913350400764845,0.2929214436954645,0.4493466167034564,-0.13589094355013284,-0.27528859993429666,0.4003480055334072,0.2521268089330732,0.06068864859071642],[0.2192081162552995,-0.2143863428840414,-0.05807683405316822,-0.0333179758496386,-0.1054264603344865,-0.03777535383168653,0.12249794281923877,-0.069057770917871,0.11147378444461944,0.282611316387291,0.2617004467436112,-0.05520803206434548,0.26486954220549935,-0.26121339352720696,-0.051133489353684794,0.14714297985389757],[-0.36274219494627014]]};

  function sigmoid(x) { return 1 / (1 + Math.exp(-x)); }

  function runNet(input) {
    let a = input;
    for (let l = 0; l < MODEL.weights.length; l++) {
      const W = MODEL.weights[l];
      const b = MODEL.biases[l];
      a = W.map((row, i) => sigmoid(b[i] + row.reduce((s, w, j) => s + w * a[j], 0)));
    }
    return a[0];
  }

  const PawML = {
    /**
     * @param {object} userPrefs  { wants_dog, preferred_size, preferred_energy,
     *                              apartment_friendly, has_kids, max_shedding,
     *                              alone_tolerance_needed }
     * @param {object} pet        pet object from app.js PETS array
     * @returns {number}          match score 0–1
     */
    predict(userPrefs, pet) {
      return runNet([...encodeUser(userPrefs), ...encodePet(pet)]);
    },

    /**
     * @param {object}   userPrefs
     * @param {object[]} pets
     * @returns {object[]} pets sorted desc by .mlScore
     */
    rankPets(userPrefs, pets) {
      return pets
        .map(p => ({ ...p, mlScore: this.predict(userPrefs, p) }))
        .sort((a, b) => b.mlScore - a.mlScore);
    },
  };

  global.PawML = PawML;
})(typeof window !== 'undefined' ? window : global);
