/**
 * model_export.js  (AUTO-GENERATED — do not edit manually)
 * Regenerate: node ml/train_model.js
 *
 * Usage:  PawML.predict(userPrefs, pet)   → number [0-1]
 *         PawML.rankPets(userPrefs, pets) → sorted pet array with .mlScore
 */
(function (global) {
  'use strict';

  const SPECIES_MAP = { dog: 1, cat: 0, rabbit: 0.25, guinea_pig: 0.5, hamster: 0.75, terrapin: 0.85 };
  const SIZE_MAP     = { small: 0, medium: 0.5, large: 1 };
  const ENERGY_MAP   = { low: 0, medium: 0.5, high: 1 };
  const SHEDDING_MAP = { low: 0, medium: 0.5, high: 1 };
  const ALONE_MAP    = { low: 0, medium: 0.5, high: 1 };

  function encodeUser(p) {
    return [
      p.wants_dog !== undefined ? Number(p.wants_dog) : 0,
      p.wants_cat !== undefined ? Number(p.wants_cat) : 0,
      p.wants_rabbit !== undefined ? Number(p.wants_rabbit) : 0,
      p.wants_guinea_pig !== undefined ? Number(p.wants_guinea_pig) : 0,
      p.wants_hamster !== undefined ? Number(p.wants_hamster) : 0,
      p.wants_terrapin !== undefined ? Number(p.wants_terrapin) : 0,
      SIZE_MAP[p.preferred_size]          ?? 0.5,
      ENERGY_MAP[p.preferred_energy]      ?? 0.5,
      p.apartment_friendly !== undefined ? Number(p.apartment_friendly) : 0.5,
      p.has_kids !== undefined ? Number(p.has_kids) : 0.5,
      SHEDDING_MAP[p.max_shedding]        ?? 0.5,
      ALONE_MAP[p.alone_tolerance_needed] ?? 0.5,
    ];
  }

  function encodePet(pet) {
    const s = pet.species ?? pet.type ?? '';
    return [
      s === 'dog' ? 1 : 0,
      s === 'cat' ? 1 : 0,
      s === 'rabbit' ? 1 : 0,
      s === 'guinea_pig' ? 1 : 0,
      s === 'hamster' ? 1 : 0,
      s === 'terrapin' ? 1 : 0,
      SIZE_MAP[pet.size]                   ?? 0.5,
      ENERGY_MAP[pet.energy]               ?? 0.5,
      pet.apartment_friendly ? 1 : 0,
      pet.good_with_kids     ? 1 : 0,
      SHEDDING_MAP[pet.shedding]           ?? 0.5,
      ALONE_MAP[pet.alone_tolerance]       ?? 0.5,
    ];
  }

  const MODEL = {"layers":[24,16,16,1],"weights":[[[-0.1823643788103031,1.6310045890354974,-0.3409686500883315,-0.1284033345109586,-0.6728586629212862,0.09814150467655,0.1157906211197954,0.20587289839818146,0.08333568433703589,0.326433939210169,0.05902057173716136,-0.08359795643480605,0.69191551998305,1.4664152566042938,-0.452230766710042,0.011511290549713515,-0.08757913294432573,-0.6942458690195022,-0.16511430801255567,-0.18875204427962983,-0.3185774767432746,0.26690479352408897,0.029384968895645798,-0.3080344366571517],[0.009942259834705773,-0.12935184143454245,-0.1468835956799055,-0.1128105186284286,-0.020356444706684948,0.03490734781344678,0.11559740722970772,0.29059841105891643,0.4597742391455805,0.451738944059463,0.03399872794409199,0.5752366971138106,0.5768144766930191,-0.31839116815663443,0.3910155898717443,-0.920102463185982,-0.40986553583357893,0.1271436785472149,-0.11888684227105298,-0.060199581666049946,1.1290313511868164,0.5518175824442734,-0.05357544211476469,1.067941160857993],[-0.7983094693408208,-0.8862280656146939,-0.5623122091428965,-0.279969180296503,1.489518616479673,1.0168487407796316,0.07125998623925346,0.06964481136953567,0.10808465660658231,-0.044113863542271446,-0.06458451371109229,0.11471127312836886,-1.6201398520686454,-1.8989169229374259,-1.7413021643801845,1.1058234134602318,2.9377420051924106,2.431934506243208,-0.12901149660681896,-0.04278109218225815,0.014349991726951707,0.014790977653353523,0.00676312226383223,-0.0926743609226432],[-1.179896246461921,0.9635113779787953,0.5954953226648957,-0.7674611600689378,0.6806128841525434,-0.44507499998720124,0.08010516200683628,0.13466427988018967,-0.010653356428034269,0.08530784088316216,-0.02970545047450518,0.018523229431645787,1.7031252540940935,-1.9329896294997126,-1.8854506445385195,1.5210043122983379,-0.9568609476713738,1.161067025706976,-0.06547730140578303,-0.17825387433750403,0.001139085863161127,0.045460776201691235,-0.06410778754259251,-0.063579861518283],[-0.07545941086266385,0.034009836263507,-0.013003749231700433,-0.021069148731319393,-0.042782055334471054,-0.02654971795666101,-0.00325937108279467,5.9626323625778745,-0.003216812354583592,-0.006574477992617822,-0.003221772342398753,-0.025412548497778017,0.27830882886724356,0.30801414489562823,0.4966034062371109,0.2319891317375002,0.2463516050514346,0.8148710363085845,-0.009046296100033309,-5.9266391882034535,-0.08306113471326061,0.0891386792957604,0.03249215655200495,0.15176519436564864],[-0.7960169068709491,-0.8431097160364432,1.108708048454636,-0.48961624286608313,-0.7706289584031625,1.0529369095714616,0.10261806542862473,0.0622731686942768,-0.002136928644703645,0.10919151710188274,-0.043647938060288355,-0.1365871823502894,-0.576777508945002,-0.9804906154332274,3.3388657875615833,-0.901853023946521,-1.506308475590635,2.456576816607075,-0.08646330834400079,0.026583880188194742,0.11660869118839157,-0.127210185187212,0.0584779530718373,0.10854010575943802],[0.02530411375828456,0.04425047840324547,0.052476423301165434,-0.04168550186008225,0.05604074112047646,0.006922047261398446,5.128773787798074,-0.04656395131716807,0.0773292840590835,-0.08710801882954121,0.04083088202032794,0.005111366238957722,-0.3961887758905944,-0.19523179229417567,0.06519103665459618,0.3602926941285042,0.7597430880004395,1.2116507332120001,-4.771466190653611,0.09066189291735756,0.6820645296916675,0.04890314475515612,-0.04429436345825132,-0.008986296137961454],[-0.17283414381755283,-0.16475584095643506,-0.6210007685977049,-0.2593269952546637,-0.4027137335907633,-0.3922616408797648,0.31312013159465857,0.534219979836417,-0.04102980623745019,0.3421123122381232,0.38012849504176877,-0.2541957070556082,0.15797541499099352,-0.2467450446945175,0.552086569619245,0.13849315535535564,-0.11107139462667494,-0.8948092025728182,0.09002291667583057,-0.4178698961716749,-0.6596318401396302,-0.5015489179559517,-0.3303821995016454,0.23181568239523587],[-1.4063166932727234,-0.08019607268867857,0.9283843636552317,1.4054081185287335,-0.11758849597224988,-0.9070948936964909,0.021898650095493345,0.09902487062094983,-0.011580017835825185,-0.0370737620536454,0.05050971327286841,0.09401098696150846,3.005677966400438,-4.058136576086181,-1.2480524430516362,-0.7764296833974422,0.4514411483355887,3.592193477148554,-0.08598459791056746,-0.15716065610783617,0.10437592096529559,-0.02752033181952829,-0.02098596162425004,-0.07834311984289434],[0.18523581493055785,0.24973067196021528,0.24380856099789272,0.1713120345361281,0.38702677142947,0.27990767264784494,-0.2541712265657751,-0.31249738319946346,0.03194211507895887,-0.1335696969356696,1.604175284293241,0.06716373499685174,0.13308495211660787,0.42809924719612913,-0.19601342655605086,0.40114646599256776,-0.08147063127703723,0.27202152485590664,0.07594946890377591,0.269120261301766,0.7321837867824158,0.17308558756103543,-1.5204496481186511,-0.17089697823228142],[-0.4420550734710791,0.11637379752482657,0.17839360052079362,1.834661393326001,-1.6232013520941315,-0.4454572771439511,0.03456229335546365,0.06657222383487282,0.0073467512863449776,0.0030780305390035495,0.04646567622586987,0.03072495744373869,0.8005837013007298,0.005301694279582264,0.46209137699350733,-3.0112532291245038,1.7778533193221049,-0.2427890946541885,-0.06418241277309071,-0.04048226018692029,0.003113603708721796,0.004299148393578648,-0.015362806435573305,0.0128758844378792],[-1.2669088363994192,1.5539801926440155,-0.5774835207041858,0.245091246057738,-0.22319439856033035,0.7407700885059397,-0.01560089444889524,-0.021356553829485758,0.10668136177511758,0.023611060759396542,0.04114888176229653,-0.023985954143290654,2.1166920049733804,-1.9483323164159512,2.79309068685329,-0.29548403466252104,0.8512314182893694,-2.03115333166613,-0.022849403869496798,0.14356640428456324,-0.2138997774016437,-0.008530981677965415,0.03478069670055644,0.14447538802137097],[0.40303326399616446,0.39998100458165664,-1.5276224928528428,-0.37289686062921357,0.14036191008788257,-1.372380944481636,-0.0199613477040297,0.0073197985225566635,0.0408297244903229,-0.07624192510971282,-0.01292158931748708,0.13414874862651033,-0.040425810330356776,-0.6997642476442533,1.2215187128468195,0.03658160391266293,-0.5246439303330748,0.61224836163512,-0.056516183810330134,-0.19829824284634706,-0.35577982038895495,0.22957084499289226,-0.022288746914993305,-0.40668236032323873],[0.11535614723702176,-0.30029127510086956,-0.16325770137254056,-0.06901556894065324,-0.035648802746651005,-0.1897424652552076,0.24726012559337293,0.38198254822300937,-0.6561527460772305,0.09316017968475966,0.049296457101664796,0.19535443852319753,0.9073127406879986,0.6380128504913751,0.26866364837842666,0.5308967245592416,0.5812173292610937,-0.9902398644453319,-0.3611267807162627,-0.2885737890275395,-2.336376872870856,0.04234171166249144,0.058569624039710805,0.36873639102986266],[0.14357331998045839,0.14683754846522423,-0.09644195325741925,0.04652570993199035,0.034424937654526366,0.04561677024566059,0.14207006053003768,0.2128510856388413,0.22468446667357547,-1.2842967886396892,0.05332524102176788,0.06485096012569541,0.7640141671356177,0.32021521997559493,0.6111782943267827,0.1201107456655584,0.6139578057008332,-0.5741308395342163,-0.3048191628797112,-0.22271828075614525,0.48079847418614124,-1.5184242614577428,0.010697863074630373,-0.18529011148961916],[0.12485562863225642,-0.40110773323452636,-0.10332360389051412,-0.02978706511518773,0.13748465516279215,-0.24649369303209187,0.10928003653278012,0.06605839785442302,0.3114696906176606,0.574318820210738,0.07165521196662092,-0.38575543353189834,0.6495604050605186,-0.4467753059325653,0.372624399040384,1.1866768321989567,0.9647237730558585,-1.5510628124983874,-0.17637736896665207,-0.3392160013824201,0.8355232590111253,0.5113741804000749,-0.03116891668255353,-0.9235008415334302]],[[0.11304563105433527,0.1691104000749774,0.16209809747957782,0.25039846473797905,0.1410571694987797,0.39372107107971593,0.3607534598999494,-0.08281438590358124,0.1245539681908976,0.14215014352163458,-0.013633261545574664,0.36966105180761094,0.03270820594298126,0.042193478252165746,0.13428109794397283,0.14079616289004282],[0.32144293711926875,0.539768231769153,-0.121695281735021,1.3763563898194244,0.24518152051229333,1.3996618258123215,-0.32597848076055697,0.3765555880254237,-0.4129256750514464,-0.4516727289760781,1.6847862389551918,-0.41714824189703026,0.19839097691626953,0.641177645279751,0.3822737039834269,0.4797432766049306],[-0.38414089325220535,-0.7064116454371913,-0.9620171110226781,-0.35734310640065853,0.2515281492017452,-0.6256653020805628,0.6100686174366294,-0.2535727989232747,0.38558780928134506,-0.2651497448840248,-0.3967707682928032,1.0629481163843169,-0.6643248486284881,-0.4399203819456507,-0.7304408793104876,-0.3975864890225128],[0.43739501768724504,0.4071627626391572,0.7421914689452175,0.7974739034692471,-0.21520140890666897,0.8925903232744686,-0.2286824273852508,0.3415618469424996,-0.03217323684659877,-0.20652478370931845,0.7918979873824631,-0.6008283235186929,0.5775918130722845,0.5578466807229396,0.9261897952907685,0.30625177556518746],[-0.18351594568334956,0.0002783026460479635,-0.5519785165261285,-0.2830043232695924,0.9624499818964146,-0.2301377682574444,0.9234439034618143,-0.2460500700458283,0.26658065272517656,0.9570914526748434,-0.796310576252395,0.3903752019481828,-0.28282751976697884,-0.3903660140784454,-0.05251443330795785,-0.14963390711378696],[-0.37127318404798854,-0.4507355036373669,-0.03333695718897931,-0.2606864028124127,1.1810099455089742,-0.22908436010110783,0.5996632714025905,-1.0014603186657844,0.6312033588797229,0.8095754539503202,-0.10667333225723091,0.2883690528144105,-0.03907530186028246,-0.8957734944569289,-0.41177437912824816,-0.4234665931180024],[-0.2002611459225865,0.024456433124375097,-0.3035543562309869,-0.49725805117452365,0.6987191385439605,-0.255655423427022,0.35626554234338587,-0.45801153662815924,0.37857738099471416,0.6559920791211736,-0.08880318348917396,0.543264593453294,0.4150032113859163,-0.6504739500034824,-0.37484394892901685,-0.20948284904176714],[0.252594216884036,0.4158490335848525,-0.09618278141125952,-0.10618994869133341,0.5933607115288448,0.3057319848902077,0.3238501689694298,0.33743198508312916,0.3398400717056557,0.35634349540687943,0.10253833073227271,0.5544356614488262,0.27860385128695053,-0.10769139547921924,0.32570505130797456,0.2786898039347903],[0.5499030520767149,0.49191959034938093,0.5697549985120859,0.8755143231972649,-0.2760397949172586,0.7563467715702973,-0.27999563363800983,0.4009621543812083,-0.1027215974122304,-0.0506644669658035,0.6757386623636034,-0.46312893357111556,0.3720589426193465,0.21267204498018802,0.43390067874070176,0.30851480050216346],[-0.8534493090415977,-0.6270049408873076,-0.5214694113542852,0.019255511786283163,0.8019778312018443,-0.5059650043647674,1.0381975724360812,-0.6969516641768272,0.4819713829430447,0.674837803788855,-0.38633324694785165,0.519772373497384,-0.15786302253865683,-0.4531167632069538,-0.4267705570218108,-0.11702935953199403],[0.0668016132434509,0.06826248650770501,0.5926491035827672,0.6307738326786559,-0.13669456906983612,0.35404530243541016,-0.10209652099025715,0.1580142257969254,0.22797690731872097,0.16755040151492284,0.5360530522470737,0.061939884244708705,0.3631167700059844,0.16122969704143372,0.13128718309428436,0.5143753460343672],[0.2500340706092992,0.2221819789794331,0.0406155132724075,0.4689575590757877,-0.013078114962404323,0.6680620217449351,0.010297076985151253,0.29500672167919356,0.07742123387499794,-0.18574502787100217,0.5252377163758609,-0.2199910472511761,0.0008278806099079444,0.4238405294666249,0.1841289358130175,0.4194490030460483],[0.6143314647563004,-0.05106876363432452,1.4954551473369488,1.5087109256308158,0.02890281469023086,-0.017480000765893598,0.05280989466656648,0.4632412053492073,-0.4888505897183179,-0.3506300960165395,0.734689335035322,-1.4952529525452611,1.4546996259060667,0.7343987534992549,0.27318776719635124,1.1512578093078973],[-1.4290016125319545,-1.2179577172504377,-2.703483885377814,-3.8401857701473063,1.9829083335619115,-2.4198195695894884,2.5027004496362757,-1.5182090334773548,2.823191558165855,1.3772834704191244,-3.7035880669059034,3.3254044690279003,-1.307486401395945,-2.8392623629186438,-1.8080344586047916,-1.8697316392960337],[0.16511734124441116,0.4808589847527581,0.2904458386422239,0.7432406988376611,0.16608948803587287,0.7316092803767614,-0.18897700435932793,0.332987381766028,-0.1396725824604692,-0.339459902695049,0.8646861300525236,-0.08689632989962799,0.3411847129674483,0.5869739966579921,0.03796968137521159,0.5784179932083919],[-0.5251230357370433,-1.3696230202555113,-1.06277336408936,-2.466076094281165,0.34365991616433583,-1.1591530284127256,-0.6004933638718255,0.3083810886304731,2.0219665492160006,-0.32189042150507347,-2.1748893665014095,1.8424821078635727,-0.29086077346013706,0.7046605697407899,-1.3252175834144795,-1.060797585314314]],[[0.11851339660042762,-2.217911865944111,2.5311296571934427,-1.6423489181037598,1.4945386122449615,1.683708883084923,1.2475135303936964,0.728432055077022,-1.466833731795141,1.9013281631767882,-0.6565443463211454,-0.7577844033493877,-2.704810033636663,6.4216367558900815,-1.2238589923890777,4.031272299631193]]],"biases":[[0.7455666182123478,-1.4700312760380243,1.507917502860723,-1.6843125770159357,2.630800080607076,0.8899465222047511,2.5944784107254106,-0.2358373082508297,1.0491760042580187,0.707547654464374,-1.572521603139398,2.0916541500804597,-0.272550680279993,1.8711933951044877,1.8502510408707864,0.7222012768530285],[0.47627764579344534,-0.7574378006577213,1.5505640240818719,-0.27770972290592955,0.6060038414396827,0.7851230440870525,0.6745504119297686,0.7524117726389067,-0.47017039124719295,1.222467765035328,-0.024143373154075765,0.12930216503845626,-0.9480864611147537,-0.7412783424336797,-0.36581963833885744,0.8930641356605942],[0.8934131823861041]]};

  function sigmoid(x) { return 1 / (1 + Math.exp(-x)); }

  function runNet(input) {
    let a = input;
    for (let l = 0; l < MODEL.weights.length; l++) {
      const W = MODEL.weights[l];
      const b = MODEL.biases[l];
      a = W.map((row, i) => sigmoid(b[i] + row.reduce((s, w, j) => s + w * a[j], 0)));
    }
    return a[0];
  }

  const PawML = {
    /**
     * @param {object} userPrefs  { preferred_species, preferred_size, preferred_energy,
     *                              apartment_friendly, has_kids, max_shedding,
     *                              alone_tolerance_needed }
     *                              apartment_friendly, has_kids, max_shedding,
     *                              alone_tolerance_needed }
     * @param {object} pet        pet object from app.js PETS array
     * @returns {number}          match score 0–1
     */
    predict(userPrefs, pet) {
      return runNet([...encodeUser(userPrefs), ...encodePet(pet)]);
    },

    /**
     * @param {object}   userPrefs
     * @param {object[]} pets
     * @returns {object[]} pets sorted desc by .mlScore
     */
    rankPets(userPrefs, pets) {
      return pets
        .map(p => ({ ...p, mlScore: this.predict(userPrefs, p) }))
        .sort((a, b) => b.mlScore - a.mlScore);
    },
  };

  global.PawML = PawML;
})(typeof window !== 'undefined' ? window : global);
