/**
 * model_export.js  (AUTO-GENERATED — do not edit manually)
 * Regenerate: node ml/train_model.js
 *
 * Usage:  PawML.predict(userPrefs, pet)   → number [0-1]
 *         PawML.rankPets(userPrefs, pets) → sorted pet array with .mlScore
 */
(function (global) {
  'use strict';

  const SPECIES_MAP = { dog: 1, cat: 0, rabbit: 0.25, guinea_pig: 0.5, hamster: 0.75, terrapin: 0.85 };
  const SIZE_MAP     = { small: 0, medium: 0.5, large: 1 };
  const ENERGY_MAP   = { low: 0, medium: 0.5, high: 1 };
  const SHEDDING_MAP = { low: 0, medium: 0.5, high: 1 };
  const ALONE_MAP    = { low: 0, medium: 0.5, high: 1 };

  function encodeUser(p) {
    return [
      p.wants_dog !== undefined ? Number(p.wants_dog) : 0.5,
      SIZE_MAP[p.preferred_size]          ?? 0.5,
      ENERGY_MAP[p.preferred_energy]      ?? 0.5,
      p.apartment_friendly !== undefined ? Number(p.apartment_friendly) : 0.5,
      p.has_kids !== undefined ? Number(p.has_kids) : 0.5,
      SHEDDING_MAP[p.max_shedding]        ?? 0.5,
      ALONE_MAP[p.alone_tolerance_needed] ?? 0.5,
    ];
  }

  function encodePet(pet) {
    return [
      SPECIES_MAP[pet.species ?? pet.type] ?? 0.5,
      SIZE_MAP[pet.size]                   ?? 0.5,
      ENERGY_MAP[pet.energy]               ?? 0.5,
      pet.apartment_friendly ? 1 : 0,
      pet.good_with_kids     ? 1 : 0,
      SHEDDING_MAP[pet.shedding]           ?? 0.5,
      ALONE_MAP[pet.alone_tolerance]       ?? 0.5,
    ];
  }

  const MODEL = {"layers":[14,16,16,1],"weights":[[[-2.536371719204098,-1.3606198575658806,19.227123807354072,1.6354510774793931,1.7785998319080756,3.2835075617372658,-1.0711659660647201,1.3510296949936083,1.1801586307680116,-18.359610210158824,0.20427583781334024,-0.01861706494767032,-0.15038262431477645,0.3400187037083602],[-6.375088745428566,-5.344997688774659,5.810021270417918,-0.45107890674499734,-5.942546436426453,2.679112212192515,-9.3710637384266,-9.044921026343877,2.4901673350041236,0.02306396652166838,2.8758894776537813,-0.6975076253568284,0.18582678432695426,0.846295512154212],[-2.966130930920924,13.66253756543223,0.636864263300767,-0.3244698947056351,0.1437806675963121,0.2708778310813086,0.3434969195027251,-28.051137912833493,-17.039562587613613,-0.8977114003259072,11.759715392043917,-1.183447442667297,0.36266509073834674,0.9412097433659378],[-6.1387785381758615,7.756104753110955,-3.6000599801652005,0.15559856404227498,-9.18385477141062,-8.721996402904475,11.091414070369105,-5.06694610509054,1.0452557949532475,7.500575576357317,5.832521128021738,-0.04705449572232526,1.3662381592405066,2.753404924483952],[8.405909361345474,16.043264472532496,-4.880582656977254,3.427748101207174,2.458640087804491,2.1731488606233036,-4.112373460411196,-0.17902723691896394,-9.07020463139132,2.8756550400727843,0.10257033053398604,0.18268915541009448,-0.5030340676258811,-1.0570478856607644],[-37.34739629454648,-0.7648316332692027,-0.8151544088928697,0.07940716869902754,1.6584073821490632,-0.14610705538604318,2.836219198109568,0.6762255057005027,3.187447221024779,1.2028066467428071,1.1674122280175372,-0.04919094685672617,-0.08154159013856875,0.2774615916357058],[-21.17785010665597,-1.4973904759116348,-0.7712501097239493,0.5771647315104311,0.5989529853756556,-0.4588290946146409,-0.35954988043444963,-14.985939811675394,1.6559336199370749,0.6179723846825713,0.21952472030148107,0.13281927611115882,0.024361232781602772,0.4611682175897844],[5.278975693754989,-0.928191383635246,2.1047524665494515,3.0385049698613154,-6.438746159036301,-2.081436878781866,1.0932660578894777,-5.380422519058565,-5.3369496847829,6.672980443491146,0.5421088294317804,-0.18343175947838022,0.0947798928649611,0.6641437491982226],[10.167064995600176,24.886851160984143,2.261632275515028,1.482096734429534,0.06784122460972652,-1.194001224383919,4.109490590156816,-2.834980814351332,-21.485145062134986,0.86992208676012,0.8914227935327836,-0.841414067815918,0.28957763029522926,1.7883066280529407],[-11.65534456400285,3.0630315848082907,-0.33345321265921146,1.8884311615016771,0.13745344495448095,3.048696748007171,-2.095517156602309,-18.394106723031083,-0.3847291220111006,-3.7799521981455153,-0.5188162905993866,-0.10604264338251888,0.654804367023132,-1.2189668103941653],[11.39787397316205,6.8875054125502695,1.2721522819108317,2.032421860775791,4.780855112065889,2.7464386471815807,4.4135026067751175,-4.432857336459366,3.761518245184788,1.590947127359168,-2.0596228180963094,0.7365337231956294,-0.10875607883109704,1.5964574392774804],[-7.9598576715771685,-9.53759976649533,3.1414981662490042,1.1779919228475697,7.055467006861832,-11.536053451963058,7.161058310030376,-9.507685705587106,1.1265772977963602,0.36968965282009225,0.6975008760741167,0.2744430687030856,-0.25910810255803884,-0.8197475894420657],[-34.30662606811163,0.3915687801619429,0.07870495947220338,0.7091417096695729,-0.7232377194445267,0.7903503861792587,-4.16696983679206,6.052240395511257,1.6271838148060114,0.9881116298445379,0.1057570333980818,0.020395510440938,-0.3274934332199291,0.27899158887578057],[-7.976590952545427,-0.13208866392292692,6.9717356975992235,2.7597839379813416,3.2228341673040237,6.225449585858917,3.3644665035219474,-4.731579400237578,2.533378805696366,-0.4421111322440755,0.6629850293759131,0.8871350917545212,0.658392677518364,-0.3630363806097239],[9.867221157995154,-2.20917931028653,-20.099019123213708,1.294366948511517,-0.7556086826439152,-1.0355907257230517,-2.3683020156742325,-2.5818017115264906,2.361752832053037,18.662775447902444,1.460249611391206,0.594859593464022,0.6538144688881758,-0.8235102397828786],[-22.87752116749713,-3.060027245959649,-3.2523837001648026,0.7066921207912875,1.111952392389206,-0.8308903696007942,3.624521971200668,-1.9159900291486038,2.2945962602981007,2.445933266314839,-0.32824917064433407,0.1499043343755831,-0.23446387023431692,-0.6050907060950332]],[[0.41569603725961773,0.359144954342361,0.38394585764452965,0.7500298027437439,0.3421646136422636,0.5082130199132362,0.7506739398247755,0.8492246726109937,0.30830613699596315,0.524522944724711,1.055166556873092,0.3803495654080426,0.3086716531975678,0.7096951330125699,0.27543669003103194,0.36014959012712705],[0.445989049387529,0.46549026704420393,0.6164062011055558,0.6652175231978649,0.2360876930181277,0.2190553574939103,0.7169866310920414,0.6728907514855234,0.4623648279584974,0.5922489787024714,0.9346213985729178,0.6549191318755181,0.2985869642675569,0.37871038898300224,0.19293665903078633,0.005722983018848677],[0.5550913135820532,0.2664762663914215,0.7041711967958876,0.5550228342386758,0.48841780925686645,0.7664588024227311,0.4841967256576486,0.7499060850817449,0.41746480765364086,0.8256201625362235,1.211941976451329,0.21145030178031593,0.41938955971054404,0.40592462416989755,0.37011451014152463,0.540369919313305],[7.126506217662857,5.290256093697402,8.259097736921229,-3.2907226759677877,-15.444752724610114,-8.02582865841537,-6.880811031273971,-8.837816771640629,11.885945487214865,-1.597043737881554,-11.994364522348373,-5.955150561112578,1.8677587295142324,1.7620217540887624,4.826938569899534,11.742582133091018],[2.8067767006174824,1.2247965776470615,4.020588531556954,-1.069594084825042,-3.0103636507304663,-3.143700511088525,-3.5044970727901084,0.40969259267957425,3.280998090095258,1.1100638388047028,-4.094706160981859,-1.563224550862338,1.1294767868328128,0.753017651746504,3.854429115671394,1.8349414921026992],[0.7061136032690366,0.3980507130077812,0.2124720331683184,0.35661195280512836,0.10628326172209812,0.09947141980006563,0.6652906081333666,0.7792905807048415,0.12455148115321239,0.48153916031561766,0.8015981825233909,0.4269786201485566,0.49983493875647084,0.43172642640783226,0.6201415345544086,0.27561279250380816],[-1.004063427474539,1.9260668836354764,-0.6678858404241597,2.397928814832341,-0.4262517464865738,2.105281464326542,2.95674401815456,-0.04690420460193561,-2.9667677454316315,3.538643677891171,2.032022736044654,2.402598710847563,1.8080495670908474,0.9953542028077205,-1.2976030462479202,1.150695497773113],[16.947952831520812,-3.248007601647128,-23.17407849112107,-3.3931197736698873,5.03443108084386,-10.263874563065416,-19.629668591920918,1.3047047800460227,11.699468713178446,-6.7654256991273725,-3.4001884505239715,-2.7823861898926534,-10.555749205297593,-4.945025027063671,16.46617644866725,-8.23631433994087],[0.3172198294544791,0.44693004354533306,0.2546866132611354,0.7513751398734559,0.4061912707176813,0.4841325594726577,0.3824005263181456,0.9681994616898654,0.5154385571708345,0.6075769252975908,1.1165057365707856,0.44167665018350133,0.6735695955998484,0.4041924062263584,0.6769683691595314,0.48649670099792747],[0.6745769472831901,0.6405132617979936,0.5510045793869958,0.3799189697142454,0.44415688259631136,0.2533066279069595,0.7194982943109585,0.5155865808058221,0.5874870063216916,0.26112888272549073,0.8621741917395224,0.6679481035753283,0.5885090500658282,0.4962401896883556,0.32032472592693667,0.46637264289197916],[0.3392625623551484,0.5331620997543749,0.31530996167819203,0.9216099825366962,0.3232647724286048,0.9089135478667532,1.3757030449122196,0.46544451009092175,-0.5015860773479814,1.4627467174563311,1.5646822388248791,0.6058769793624503,1.0407005300280687,0.6603319788238868,-0.0936551473590127,0.5803567238611792],[0.5233994835965915,0.2123356335775124,0.35804829064834987,0.20506374418109968,0.31212235366206403,0.5539132463342615,0.6777840020277338,0.7093880852248037,0.4475397484475689,0.621520170563882,0.6959284136036566,0.5517558551313705,0.27585552655169654,0.6929831964180962,0.3603775040145902,0.21734924046137344],[-1.259269217284806,-0.3997357445496856,-1.9062338195462625,0.9312104921831115,1.8244039134061851,2.374414492293312,2.9347155335210307,0.029730908272309665,-4.862265809857047,0.039125441374769546,3.694173134943972,2.8436790467131243,-0.8750971322171387,-0.203154314617057,-2.346406461735233,1.157338436808117],[0.20619179061355658,0.19615247808868924,1.3133483763405147,-0.015460662819943358,0.41304277997613775,0.47569578366029713,0.200353230810469,0.046709107169164966,0.1767823455046116,-0.7276447375299685,1.1500978618926154,-0.024706393308399587,1.174314875424911,0.4015226519021853,-0.05663381777290831,-0.2995657493864896],[0.531137424173703,0.35949517300642964,0.3077529542377713,0.6878323713084828,0.22747721173667965,0.7367822710138039,0.6709566995946968,0.7931839993381297,0.6452715540871331,0.5644626068581146,0.9249654591371117,0.5363918256134911,0.2141549468245698,0.6534901151065801,0.585894795662918,0.4427233015399865],[0.15607293815147805,0.10137700298458648,0.5751538804042213,0.6214414734856805,0.7162211660028492,0.39785340761159244,0.5563705346138121,1.0428941491070027,0.15096211875148258,0.6232918518280138,1.7876279896616818,0.4684201138389086,0.5709737904783693,0.6893094328463504,0.04942495743688902,0.6228230577215423]],[[-0.2041064150551272,0.0996267159258923,-0.4617138018986179,9.440652067887234,1.0700286211062646,0.2668390588337138,-3.6809599630872,4.965144262386737,-0.4896640687091679,-0.1705365945751542,-1.3947228143329065,0.280377592044477,2.957252006493441,1.6023181158392366,-0.5202938143312036,-0.7410276714484583]]],"biases":[[0.7554545068046327,12.78104581418904,14.290617549381187,1.439928043754188,-6.543527881682455,7.557971599452951,24.189359933982228,7.931242030116963,-2.158024941176776,20.861220476656342,-0.7532379484866025,11.46753629152262,4.550888549441003,1.3521565318497888,4.279683499857501,4.108762451992106],[0.8615955796644545,0.968541812235973,0.844281500817234,-8.863906221740942,-5.6089372321611535,1.0209843160979246,0.2959978560648934,2.265791001959347,0.5844038808466704,0.7875814896457567,0.5433373276612523,1.0039206028798255,3.1538620524966503,0.7152472591204851,0.32314568916109015,0.922794212375678],[0.12758454658580917]]};

  function sigmoid(x) { return 1 / (1 + Math.exp(-x)); }

  function runNet(input) {
    let a = input;
    for (let l = 0; l < MODEL.weights.length; l++) {
      const W = MODEL.weights[l];
      const b = MODEL.biases[l];
      a = W.map((row, i) => sigmoid(b[i] + row.reduce((s, w, j) => s + w * a[j], 0)));
    }
    return a[0];
  }

  const PawML = {
    /**
     * @param {object} userPrefs  { preferred_species, preferred_size, preferred_energy,
     *                              apartment_friendly, has_kids, max_shedding,
     *                              alone_tolerance_needed }
     *                              apartment_friendly, has_kids, max_shedding,
     *                              alone_tolerance_needed }
     * @param {object} pet        pet object from app.js PETS array
     * @returns {number}          match score 0–1
     */
    predict(userPrefs, pet) {
      return runNet([...encodeUser(userPrefs), ...encodePet(pet)]);
    },

    /**
     * @param {object}   userPrefs
     * @param {object[]} pets
     * @returns {object[]} pets sorted desc by .mlScore
     */
    rankPets(userPrefs, pets) {
      return pets
        .map(p => ({ ...p, mlScore: this.predict(userPrefs, p) }))
        .sort((a, b) => b.mlScore - a.mlScore);
    },
  };

  global.PawML = PawML;
})(typeof window !== 'undefined' ? window : global);
